{"learner":{"attributes":{"best_iteration":"99","best_ntree_limit":"100","scikit_learn":"{\"use_label_encoder\": false, \"n_estimators\": 100, \"objective\": \"binary:logistic\", \"max_depth\": null, \"max_leaves\": null, \"max_bin\": null, \"grow_policy\": null, \"learning_rate\": null, \"verbosity\": null, \"booster\": null, \"tree_method\": null, \"gamma\": null, \"min_child_weight\": null, \"max_delta_step\": null, \"subsample\": null, \"sampling_method\": null, \"colsample_bytree\": null, \"colsample_bylevel\": null, \"colsample_bynode\": null, \"reg_alpha\": null, \"reg_lambda\": null, \"scale_pos_weight\": null, \"base_score\": null, \"missing\": NaN, \"num_parallel_tree\": null, \"random_state\": null, \"n_jobs\": null, \"monotone_constraints\": null, \"interaction_constraints\": null, \"importance_type\": null, \"gpu_id\": null, \"validate_parameters\": null, \"predictor\": null, \"enable_categorical\": false, \"max_cat_to_onehot\": null, \"eval_metric\": null, \"early_stopping_rounds\": null, \"callbacks\": null, \"classes_\": [0, 1], \"n_classes_\": 2, \"_estimator_type\": \"classifier\"}"},"feature_names":["Size","Weight","Sweetness","Crunchiness","Juiciness","Ripeness","Acidity"],"feature_types":["float","float","float","float","float","float","float"],"gradient_booster":{"model":{"gbtree_model_param":{"num_parallel_tree":"1","num_trees":"100","size_leaf_vector":"0"},"tree_info":[0,0,0,0,0,0,0,0,0,0,0,0,0,0,0,0,0,0,0,0,0,0,0,0,0,0,0,0,0,0,0,0,0,0,0,0,0,0,0,0,0,0,0,0,0,0,0,0,0,0,0,0,0,0,0,0,0,0,0,0,0,0,0,0,0,0,0,0,0,0,0,0,0,0,0,0,0,0,0,0,0,0,0,0,0,0,0,0,0,0,0,0,0,0,0,0,0,0,0,0],"trees":[{"base_weights":[3.996004E-3,-7.3397434E-1,3.3768117E-1,-9.3971294E-1,3.188406E-1,7.266635E-1,-8.6814815E-1,-1.4760915E0,-4.7887325E-1,8.333333E-1,-3.7362638E-1,1.5643564E0,5.2457076E-1,-1.7797102E0,8.383234E-2,-2.5E-1,-1.5496689E0,-1.2258065E0,2.3890784E-1,2.2222222E-1,1.409836E0,2.7586207E-1,-1.3513514E0,1.709091E0,-1.1304348E0,1.475E0,3.015295E-1,-1.8686568E0,8.5714287E-1,-1.2307693E0,1.6153846E0,-1.2941177E0,7.368421E-1,-1.572383E0,5E-1,-1.4585153E0,-1.4814815E-1,-3.888889E-1,8.235294E-1,-4E-1,7.027027E-1,3.529412E-1,1.6666666E0,6.3414633E-1,-4.7619048E-1,-1.5151515E0,-0E0,-7.692308E-1,1.7765957E0,-1.5789474E0,5E-1,1.6151203E0,6.0606062E-2,-8.510638E-3,9.6567506E-1,-5E-1,-1.8791541E0,1.2E0,-0E0,-1.8222222E0,4.3137255E-1,7.4285716E-1,1.808E0,-5E-1,1.2E0,-1.6129032E0,-3.1578946E-1,2.857143E-1,-1.6682926E0,-1.2258065E0,1.1111112E0,-9.3333334E-1,4.827586E-1,1.2577319E0,6.666667E-2,7.5E-1,-1.3333334E0,-2.5E-1,1.2E0,1.0769231E0,-1E0,7.692308E-1,1.7948718E0,-2.857143E-1,9.677419E-1,5.4545456E-1,-1.1428572E0,-1.1111112E0,-0E0,1.8662614E0,1.0588236E0,1.6749116E0,-3.3333334E-1,-6E-1,8.235294E-1,5.578231E-1,-9.4382024E-1,6.451613E-2,1.4405594E0,-1.9344262E0,-5.882353E-1,-1.1578947E0,1.2222222E0,-4E-1,1.3333334E0,5E-1,1.8347107E0],"categories":[],"categories_nodes":[],"categories_segments":[],"categories_sizes":[],"default_left":[1,1,1,1,1,1,1,1,1,1,1,1,1,1,1,1,1,1,1,1,1,1,1,1,1,1,1,1,1,1,1,0,1,1,0,1,1,1,1,1,1,1,1,1,1,0,0,1,1,0,0,1,1,1,1,0,0,0,0,1,1,1,1,0,0,0,0,0,0,0,0,0,0,0,0,0,0,0,0,0,0,0,0,0,0,0,0,0,0,0,0,0,0,0,0,0,0,0,0,0,0,0,0,0,0,0,0],"id":0,"left_children":[1,3,5,7,9,11,13,15,17,19,21,23,25,27,29,31,33,35,37,39,41,43,45,47,49,51,53,55,57,59,61,-1,63,65,-1,67,69,71,73,75,77,79,81,83,85,-1,-1,87,89,-1,-1,91,93,95,97,-1,-1,-1,-1,99,101,103,105,-1,-1,-1,-1,-1,-1,-1,-1,-1,-1,-1,-1,-1,-1,-1,-1,-1,-1,-1,-1,-1,-1,-1,-1,-1,-1,-1,-1,-1,-1,-1,-1,-1,-1,-1,-1,-1,-1,-1,-1,-1,-1,-1,-1],"loss_changes":[2.4674384E2,6.7880264E1,3.242728E2,6.3870087E1,1.874829E1,8.759195E1,1.4658864E2,1.0460663E1,7.642395E1,1.025592E1,1.4819516E1,4.1324966E1,8.906588E1,2.1830688E1,1.701055E2,9.196594E0,6.058716E0,1.7275871E1,2.7204735E1,4.98979E0,3.5512676E0,4.208979E0,2.0475025E0,1.7469116E1,4.994279E0,1.57569275E1,7.068743E1,2.637024E-1,1.0285714E0,4.5516136E1,5.211342E0,0E0,3.3210528E0,5.2061462E0,0E0,2.1424423E1,1.9682198E1,1.7534866E1,1.2486313E1,9.05E0,4.6824327E0,5.239819E0,3.8146973E-6,3.4218278E0,4.199135E0,0E0,0E0,8.547008E-1,4.073761E0,0E0,0E0,9.033737E0,4.65205E0,1.2500538E2,4.6660194E1,0E0,0E0,0E0,0E0,3.5350723E0,1.7440317E1,6.438096E0,1.744461E-1,0E0,0E0,0E0,0E0,0E0,0E0,0E0,0E0,0E0,0E0,0E0,0E0,0E0,0E0,0E0,0E0,0E0,0E0,0E0,0E0,0E0,0E0,0E0,0E0,0E0,0E0,0E0,0E0,0E0,0E0,0E0,0E0,0E0,0E0,0E0,0E0,0E0,0E0,0E0,0E0,0E0,0E0,0E0,0E0],"parents":[2147483647,0,0,1,1,2,2,3,3,4,4,5,5,6,6,7,7,8,8,9,9,10,10,11,11,12,12,13,13,14,14,15,15,16,16,17,17,18,18,19,19,20,20,21,21,22,22,23,23,24,24,25,25,26,26,27,27,28,28,29,29,30,30,32,32,33,33,35,35,36,36,37,37,38,38,39,39,40,40,41,41,42,42,43,43,44,44,47,47,48,48,51,51,52,52,53,53,54,54,59,59,60,60,61,61,62,62],"right_children":[2,4,6,8,10,12,14,16,18,20,22,24,26,28,30,32,34,36,38,40,42,44,46,48,50,52,54,56,58,60,62,-1,64,66,-1,68,70,72,74,76,78,80,82,84,86,-1,-1,88,90,-1,-1,92,94,96,98,-1,-1,-1,-1,100,102,104,106,-1,-1,-1,-1,-1,-1,-1,-1,-1,-1,-1,-1,-1,-1,-1,-1,-1,-1,-1,-1,-1,-1,-1,-1,-1,-1,-1,-1,-1,-1,-1,-1,-1,-1,-1,-1,-1,-1,-1,-1,-1,-1,-1,-1],"split_conditions":[-4.1561896E-1,6.402492E-1,1.6884863E0,-1.5451944E0,1.0106492E0,-2.0994658E0,-9.428148E-1,-4.070941E-1,-4.2221197E-1,1.3756597E0,4.522593E-1,4.2039704E0,-1.791131E0,2.0027342E0,-1.4556358E0,-1.2085993E0,5.4325504E0,1.5044291E0,-7.65253E-2,-5.370828E-1,-2.7448926E0,2.3298109E0,2.0793328E0,-3.4683347E0,-2.0237526E-1,2.3796636E-1,6.303482E-1,1.6991599E0,-2.9607723E0,1.6522291E0,-6.5353775E-1,-3.8823533E-1,9.263569E-1,3.5698597E0,1.5E-1,-8.451027E-1,1.3319545E0,1.3218775E0,-7.0415485E-1,-4.959791E-2,-6.04054E-1,-5.4239714E-1,-1.8567774E0,-1.5993296E0,1.6016102E0,-4.5454547E-1,-0E0,-2.5434804E0,1.244169E0,-4.7368425E-1,1.5E-1,1.4947615E0,9.8498964E-1,1.4150379E0,-1.736335E0,-1.5E-1,-5.637463E-1,3.6E-1,-0E0,3.804959E-1,-4.2752542E0,1.0202348E0,-8.583218E-1,-1.5E-1,3.6E-1,-4.8387098E-1,-9.4736844E-2,8.5714296E-2,-5.004878E-1,-3.6774194E-1,3.3333337E-1,-2.8E-1,1.4482759E-1,3.773196E-1,2.0000001E-2,2.2500001E-1,-4.0000004E-1,-7.5E-2,3.6E-1,3.2307696E-1,-3E-1,2.3076925E-1,5.3846157E-1,-8.5714296E-2,2.9032257E-1,1.6363637E-1,-3.4285718E-1,-3.3333337E-1,-0E0,5.598784E-1,3.176471E-1,5.0247353E-1,-1.0000001E-1,-1.8E-1,2.4705884E-1,1.6734694E-1,-2.8314608E-1,1.9354839E-2,4.3216783E-1,-5.8032787E-1,-1.7647061E-1,-3.4736842E-1,3.6666667E-1,-1.20000005E-1,4.0000004E-1,1.5E-1,5.5041325E-1],"split_indices":[4,1,5,4,6,1,0,3,0,1,5,6,6,2,2,1,3,2,6,0,2,6,1,6,0,0,0,5,1,0,2,0,5,5,0,5,5,5,1,6,6,6,5,2,3,0,0,1,5,0,0,5,3,6,2,0,0,0,0,1,2,3,0,0,0,0,0,0,0,0,0,0,0,0,0,0,0,0,0,0,0,0,0,0,0,0,0,0,0,0,0,0,0,0,0,0,0,0,0,0,0,0,0,0,0,0,0],"split_type":[0,0,0,0,0,0,0,0,0,0,0,0,0,0,0,0,0,0,0,0,0,0,0,0,0,0,0,0,0,0,0,0,0,0,0,0,0,0,0,0,0,0,0,0,0,0,0,0,0,0,0,0,0,0,0,0,0,0,0,0,0,0,0,0,0,0,0,0,0,0,0,0,0,0,0,0,0,0,0,0,0,0,0,0,0,0,0,0,0,0,0,0,0,0,0,0,0,0,0,0,0,0,0,0,0,0,0],"sum_hessian":[1E3,3.11E2,6.89E2,2.6025E2,5.075E1,5.2125E2,1.6775E2,1.1925E2,1.41E2,2.9E1,2.175E1,1E2,4.2125E2,8.525E1,8.25E1,7E0,1.1225E2,6.875E1,7.225E1,1.475E1,1.425E1,1.35E1,8.25E0,9.525E1,4.75E0,7.9E1,3.4225E2,8.275E1,2.5E0,4.45E1,3.8E1,3.25E0,3.75E0,1.1125E2,1E0,5.625E1,1.25E1,3.5E1,3.725E1,6.5E0,8.25E0,3.25E0,1.1E1,9.25E0,4.25E0,7.25E0,1E0,2.25E0,9.3E1,3.75E0,1E0,7.175E1,7.25E0,2.34E2,1.0825E2,1E0,8.175E1,1.5E0,1E0,3.275E1,1.175E1,7.75E0,3.025E1,1E0,2.75E0,1.075E2,3.75E0,6E0,5.025E1,6.75E0,5.75E0,2.15E1,1.35E1,2.325E1,1.4E1,3E0,3.5E0,3E0,5.25E0,2.25E0,1E0,2.25E0,8.75E0,2.5E0,6.75E0,1.75E0,2.5E0,1.25E0,1E0,8.125E1,1.175E1,6.975E1,2E0,4E0,3.25E0,1.46E2,8.8E1,3.775E1,7.05E1,2.95E1,3.25E0,3.75E0,8E0,2.75E0,5E0,1E0,2.925E1],"tree_param":{"num_deleted":"0","num_feature":"7","num_nodes":"107","size_leaf_vector":"0"}},{"base_weights":[3.1618057E-3,-5.2374303E-1,2.6404524E-1,-1.016133E0,-2.23586E-1,5.587745E-1,-6.806009E-1,9.279986E-1,-1.1639844E0,1.1498845E0,-4.182366E-1,4.0617058E-1,1.2546347E0,-9.946046E-1,8.8027316E-1,1.4214768E0,-7.7302474E-1,7.007004E-1,-1.2838212E0,7.3542863E-1,1.7207952E0,-8.668879E-1,-5.1794272E-2,9.441003E-1,1.5487652E-1,5.740114E-1,1.464722E0,-1.3164207E0,5.0254935E-1,-1.3202441E0,1.4446591E0,-3.4569523E-1,1.4336183E0,-4.8109484E-1,-1.3958071E0,7.735864E-2,1.2246121E0,-1.093278E0,4.8903465E-1,-7.7401227E-1,2.1884055E-1,1.09483E0,-6.87504E-2,-3.8695452E-1,7.8052664E-1,1.534177E0,-9.215638E-2,-2.0458494E-1,1.4990549E0,-1.3756931E0,6.241936E-1,-1.0756276E0,1.0185004E0,1.5021182E0,4.6879214E-1,-9.484963E-1,3.9043847E-1,7.0825654E-1,-1.5430561E0,-1.4439303E0,4.087015E-1,-7.40288E-1,6.189212E-1,5.165306E-1,1.5068487E0,-6.242606E-1,-1.3717474E0,7.9918206E-1,-5.115492E-1,-1.0470834E0,1.3912373E-2,9.966314E-1,-1.24696465E-2,1.1891692E0,-4.9679548E-1,1.063462E0,-8.159754E-1,1.3931613E-1,-1.3215916E0,2.499211E-1,1.3596088E0,-1.0646101E0,9.7167957E-1,1.2802366E0,1.7115268E0,-1.4901266E0,-1.0175921E0,-1.4651081E-1,1.0171496E0,-3.1677537E-2,-1.3207664E0,5.549432E-1,1.4512123E0],"categories":[],"categories_nodes":[],"categories_segments":[],"categories_sizes":[],"default_left":[1,1,1,1,1,1,1,1,1,1,1,1,1,1,1,0,0,1,1,1,0,1,1,1,1,1,1,1,1,0,1,1,0,1,1,1,1,1,1,1,1,1,1,1,1,0,1,0,1,1,1,1,1,0,0,0,0,0,0,0,0,0,0,0,0,0,0,0,0,0,0,0,0,0,0,0,0,0,0,0,0,0,0,0,0,0,0,0,0,0,0,0,0],"id":1,"left_children":[1,3,5,7,9,11,13,15,17,19,21,23,25,27,29,-1,-1,31,33,35,-1,37,39,41,43,45,47,49,51,-1,53,55,-1,57,59,61,63,65,67,69,71,73,75,77,79,-1,81,-1,83,85,87,89,91,-1,-1,-1,-1,-1,-1,-1,-1,-1,-1,-1,-1,-1,-1,-1,-1,-1,-1,-1,-1,-1,-1,-1,-1,-1,-1,-1,-1,-1,-1,-1,-1,-1,-1,-1,-1,-1,-1,-1,-1],"loss_changes":[1.3213206E2,4.6819267E1,1.7937456E2,3.565236E1,5.3696033E1,5.1584335E1,7.602892E1,8.701342E0,2.5975586E1,4.6439056E0,2.8738163E1,5.4440773E1,1.170726E1,6.2393448E1,3.446013E1,0E0,0E0,6.1886797E0,8.838806E0,5.125593E0,0E0,2.467604E1,1.9212704E1,1.9674744E1,9.401194E1,1.4432422E1,4.1128845E0,1.3020676E1,2.0142696E1,0E0,4.9231339E-1,2.084703E0,0E0,1.9379423E1,8.606796E0,3.992672E0,1.0671215E0,7.985985E0,4.115097E0,5.776121E0,1.29033165E1,1.7379257E1,1.5733392E1,7.337881E1,3.918199E1,0E0,1.5656647E1,0E0,8.39859E-1,2.7008514E0,1.3064052E0,1.5575309E0,2.8337593E0,0E0,0E0,0E0,0E0,0E0,0E0,0E0,0E0,0E0,0E0,0E0,0E0,0E0,0E0,0E0,0E0,0E0,0E0,0E0,0E0,0E0,0E0,0E0,0E0,0E0,0E0,0E0,0E0,0E0,0E0,0E0,0E0,0E0,0E0,0E0,0E0,0E0,0E0,0E0,0E0],"parents":[2147483647,0,0,1,1,2,2,3,3,4,4,5,5,6,6,7,7,8,8,9,9,10,10,11,11,12,12,13,13,14,14,17,17,18,18,19,19,21,21,22,22,23,23,24,24,25,25,26,26,27,27,28,28,30,30,31,31,33,33,34,34,35,35,36,36,37,37,38,38,39,39,40,40,41,41,42,42,43,43,44,44,46,46,48,48,49,49,50,50,51,51,52,52],"right_children":[2,4,6,8,10,12,14,16,18,20,22,24,26,28,30,-1,-1,32,34,36,-1,38,40,42,44,46,48,50,52,-1,54,56,-1,58,60,62,64,66,68,70,72,74,76,78,80,-1,82,-1,84,86,88,90,92,-1,-1,-1,-1,-1,-1,-1,-1,-1,-1,-1,-1,-1,-1,-1,-1,-1,-1,-1,-1,-1,-1,-1,-1,-1,-1,-1,-1,-1,-1,-1,-1,-1,-1,-1,-1,-1,-1,-1,-1],"split_conditions":[-3.0131555E-1,-8.6226416E-1,1.6728828E0,-2.2670627E0,4.3476287E-2,2.0510983E0,7.9781926E-1,2.485485E0,-1.0499017E0,-9.046424E-2,-1.5500269E0,-8.134983E-1,4.6289676E-1,8.8195384E-1,-2.3868766E0,4.2644307E-1,-2.3190743E-1,-1.9796401E-2,-6.0855895E-1,4.1505527E-1,5.162386E-1,6.4245534E-1,-1.145748E0,2.3745018E-1,8.383861E-2,-1.3432883E0,-3.6760373E0,2.573955E0,-4.2752542E0,-3.9607325E-1,1.9983633E0,-1.5254221E0,4.300855E-1,1.2455271E-1,2.6001406E0,-2.4016908E-1,-6.9899666E-1,-1.5166962E0,1.6048551E0,1.1299828E0,-1.9250188E0,1.4860852E0,-1.4029179E0,2.085857E0,-8.38001E-1,4.602531E-1,6.6018814E-1,-6.1375484E-2,2.6779346E0,-8.946511E-1,-3.162718E-1,2.1233935E0,-1.4556358E0,4.506355E-1,1.4063765E-1,-2.845489E-1,1.17131546E-1,2.1247697E-1,-4.6291685E-1,-4.331791E-1,1.2261046E-1,-2.2208641E-1,1.8567637E-1,1.5495917E-1,4.5205462E-1,-1.8727818E-1,-4.1152424E-1,2.3975463E-1,-1.5346476E-1,-3.1412503E-1,4.1737123E-3,2.9898942E-1,-3.7408941E-3,3.5675076E-1,-1.4903864E-1,3.1903863E-1,-2.4479264E-1,4.179484E-2,-3.964775E-1,7.497633E-2,4.0788266E-1,-3.1938305E-1,2.9150388E-1,3.84071E-1,5.134581E-1,-4.47038E-1,-3.0527765E-1,-4.3953244E-2,3.0514488E-1,-9.503261E-3,-3.9622995E-1,1.6648297E-1,4.353637E-1],"split_indices":[4,0,5,5,3,3,2,2,3,2,4,6,4,0,0,0,0,1,5,0,0,1,6,0,0,5,0,3,2,0,4,6,0,2,2,1,1,2,6,0,1,5,1,6,2,0,0,0,3,2,0,5,2,0,0,0,0,0,0,0,0,0,0,0,0,0,0,0,0,0,0,0,0,0,0,0,0,0,0,0,0,0,0,0,0,0,0,0,0,0,0,0,0],"split_type":[0,0,0,0,0,0,0,0,0,0,0,0,0,0,0,0,0,0,0,0,0,0,0,0,0,0,0,0,0,0,0,0,0,0,0,0,0,0,0,0,0,0,0,0,0,0,0,0,0,0,0,0,0,0,0,0,0,0,0,0,0,0,0,0,0,0,0,0,0,0,0,0,0,0,0,0,0,0,0,0,0,0,0,0,0,0,0,0,0,0,0,0,0],"sum_hessian":[9.592289E2,3.173239E2,6.4190497E2,1.19274994E2,1.9804893E2,4.8956833E2,1.5233664E2,8.056875E0,1.1121812E2,2.3974627E1,1.7407431E2,4.0281393E2,8.675439E1,1.271254E2,2.5211246E1,6.3725085E0,1.684367E0,6.42329E0,1.0479483E2,1.5216379E1,8.758246E0,7.764476E1,9.642954E1,1.2738078E2,2.7543314E2,2.1342615E1,6.541177E1,1.0473346E2,2.2391941E1,4.8728704E0,2.0338377E1,2.863445E0,3.5598447E0,1.3478139E1,9.131669E1,6.9820175E0,8.234362E0,6.670168E1,1.0943073E1,2.5778057E1,7.065149E1,1.1080948E2,1.6571306E1,1.4780836E2,1.2762478E2,8.208498E0,1.3134117E1,1.2182853E0,6.419348E1,1.01911865E2,2.821597E0,5.2496643E0,1.7142277E1,1.8698162E1,1.6402147E0,1.4156895E0,1.4477556E0,6.514851E0,6.963288E0,8.913932E1,2.1773717E0,2.6357045E0,4.346313E0,3.1533356E0,5.081026E0,2.605678E1,4.0644905E1,8.507361E0,2.4357123E0,1.8899235E1,6.8788223E0,1.54366E1,5.521489E1,1.0484778E2,5.961699E0,6.420143E0,1.0151163E1,9.510697E1,5.27014E1,6.7347084E1,6.0277695E1,6.861387E0,6.2727304E0,3.508547E1,2.9108019E1,7.483625E1,2.7075613E1,1.1646085E0,1.6569887E0,1.2130378E0,4.036627E0,9.378122E0,7.7641535E0],"tree_param":{"num_deleted":"0","num_feature":"7","num_nodes":"93","size_leaf_vector":"0"}},{"base_weights":[2.998497E-3,-1.696626E-1,5.517958E-1,-5.087452E-1,2.983249E-1,-5.326616E-2,9.0013015E-1,6.090763E-1,-9.279969E-1,-6.764317E-1,4.7997797E-1,-1.0528656E0,1.0624718E-1,-8.079134E-1,9.6264744E-1,7.219832E-1,-1.1966622E0,-1.1769317E0,-4.9296054E-1,7.173879E-1,-1.0363985E0,7.547094E-1,-2.4099551E-1,6.015165E-1,-1.4287591E0,-1.8351378E-1,6.072828E-1,-1.1093976E0,1.5824379E-1,-9.1182005E-1,1.0012887E0,1.1280134E0,3.3641097E-1,-1.15022E-1,-1.3854973E0,-1.2522072E0,-4.534605E-2,-6.1506923E-2,-1.098963E0,-4.774502E-1,1.0284197E0,-1.7718177E-1,-1.2263949E0,5.038186E-1,1.1893756E0,-9.59955E-1,9.901962E-1,-3.9686716E-1,-1.5128819E0,1.1036559E0,-4.0882778E-1,-3.7767172E-1,1.260052E0,-1.3294388E-1,1.06028E0,-1.4288232E-1,1.2404569E0,1.123922E0,1.4075711E-1,-7.897483E-1,-1.3417536E0,-1.0211693E0,1.0573196E0,-3.8270783E-1,7.520937E-1,-1.3978467E0,-7.270123E-1,1.09005235E-1,1.2246878E0,2.95573E-1,-1.030713E0,-1.3852813E0,-2.779833E-2,3.1969467E-1,1.0135179E0,-6.498746E-2,1.2425765E0,8.604956E-1,-1.0956234E0,6.259471E-2,1.2585869E0,1.3009198E0,5.9110485E-2,-6.94331E-1,4.6723405E-1,8.9093393E-1,-8.4621775E-1,2.1538065E-1,1.3285348E0,-1.228904E0,5.9216875E-1,8.5145473E-1,1.3751293E0],"categories":[],"categories_nodes":[],"categories_segments":[],"categories_sizes":[],"default_left":[1,1,1,1,1,1,1,1,1,1,1,1,1,1,1,1,1,1,1,1,1,1,1,0,1,1,1,0,0,0,1,1,1,0,0,1,1,1,1,0,1,1,1,1,1,1,1,0,0,1,1,1,1,1,1,0,0,0,0,0,0,0,0,0,0,0,0,0,0,0,0,0,0,0,0,0,0,0,0,0,0,0,0,0,0,0,0,0,0,0,0,0,0],"id":2,"left_children":[1,3,5,7,9,11,13,15,17,19,21,23,25,27,29,31,33,35,37,39,41,43,45,-1,47,49,51,-1,-1,-1,53,55,57,-1,-1,59,61,63,65,-1,67,69,71,73,75,77,79,-1,-1,81,83,85,87,89,91,-1,-1,-1,-1,-1,-1,-1,-1,-1,-1,-1,-1,-1,-1,-1,-1,-1,-1,-1,-1,-1,-1,-1,-1,-1,-1,-1,-1,-1,-1,-1,-1,-1,-1,-1,-1,-1,-1],"loss_changes":[8.441736E1,1.0769282E2,4.4984734E1,1.8490247E2,5.0852196E1,1.2683266E1,1.5232483E1,2.2860722E1,3.0440857E1,2.3441736E1,4.7940987E1,7.663766E0,1.0114506E1,1.7261608E0,1.0404671E1,1.5614883E1,1.2143011E0,1.5401199E1,2.764077E1,4.1614575E0,5.718975E0,1.8466774E1,6.051078E1,0E0,1.992569E-1,1.3334463E1,1.6857214E1,0E0,0E0,0E0,8.76384E0,7.227764E0,8.13555E0,0E0,0E0,5.9851074E0,1.4375442E1,1.6741547E1,3.876686E0,0E0,1.3378382E0,3.4333715E0,5.600399E0,1.0241716E1,4.3014603E0,1.15597725E1,6.2195396E0,0E0,0E0,1.3423576E0,9.962599E0,7.2475567E0,8.2661057E-1,6.49711E0,6.8907776E0,0E0,0E0,0E0,0E0,0E0,0E0,0E0,0E0,0E0,0E0,0E0,0E0,0E0,0E0,0E0,0E0,0E0,0E0,0E0,0E0,0E0,0E0,0E0,0E0,0E0,0E0,0E0,0E0,0E0,0E0,0E0,0E0,0E0,0E0,0E0,0E0,0E0,0E0],"parents":[2147483647,0,0,1,1,2,2,3,3,4,4,5,5,6,6,7,7,8,8,9,9,10,10,11,11,12,12,13,13,14,14,15,15,16,16,17,17,18,18,19,19,20,20,21,21,22,22,24,24,25,25,26,26,30,30,31,31,32,32,35,35,36,36,37,37,38,38,40,40,41,41,42,42,43,43,44,44,45,45,46,46,49,49,50,50,51,51,52,52,53,53,54,54],"right_children":[2,4,6,8,10,12,14,16,18,20,22,24,26,28,30,32,34,36,38,40,42,44,46,-1,48,50,52,-1,-1,-1,54,56,58,-1,-1,60,62,64,66,-1,68,70,72,74,76,78,80,-1,-1,82,84,86,88,90,92,-1,-1,-1,-1,-1,-1,-1,-1,-1,-1,-1,-1,-1,-1,-1,-1,-1,-1,-1,-1,-1,-1,-1,-1,-1,-1,-1,-1,-1,-1,-1,-1,-1,-1,-1,-1,-1,-1],"split_conditions":[9.0646946E-1,1.4881933E-1,1.24906786E-1,-3.400947E-1,-1.0334367E0,-1.0778053E0,-2.538763E0,3.393358E0,-4.0056747E-1,-1.1208339E-1,1.4470909E0,1.2105724E0,-1.5808754E0,7.888717E-1,-4.223469E0,-1.3317853E0,-2.0142555E0,2.533115E0,1.3225715E-1,-1.6761886E0,-2.2521925E0,1.9395645E0,-8.336339E-1,1.8045495E-1,-3.2270052E0,-3.0594666E0,1.0154023E0,-3.328193E-1,4.747314E-2,-2.7354604E-1,-2.452425E0,-1.9567263E0,-5.563758E-2,-3.4506604E-2,-4.156492E-1,5.5359125E-1,1.4726733E-1,8.072088E-1,-1.0167551E0,-1.4323506E-1,-1.8540128E0,2.485485E0,1.5889907E0,1.9050355E0,-1.9644467E0,-3.414998E0,6.930975E-1,-1.1906015E-1,-4.5386457E-1,2.0287943E0,2.1007695E0,3.51712E-1,-2.175746E0,1.1329453E0,2.188558E0,-4.2864695E-2,3.721371E-1,3.3717662E-1,4.2227134E-2,-2.369245E-1,-4.025261E-1,-3.063508E-1,3.171959E-1,-1.1481235E-1,2.2562811E-1,-4.1935402E-1,-2.1810369E-1,3.270157E-2,3.6740637E-1,8.86719E-2,-3.092139E-1,-4.1558442E-1,-8.339499E-3,9.59084E-2,3.0405536E-1,-1.9496238E-2,3.7277296E-1,2.581487E-1,-3.28687E-1,1.8778414E-2,3.7757608E-1,3.9027596E-1,1.7733146E-2,-2.0829931E-1,1.4017022E-1,2.672802E-1,-2.5386533E-1,6.46142E-2,3.9856046E-1,-3.686712E-1,1.7765063E-1,2.5543642E-1,4.1253883E-1],"split_indices":[0,2,6,5,4,5,4,6,1,3,6,0,2,1,2,5,1,3,6,1,5,2,0,0,1,1,5,0,0,0,5,4,3,0,0,5,4,1,0,0,0,2,5,4,5,5,2,0,0,5,3,3,4,4,0,0,0,0,0,0,0,0,0,0,0,0,0,0,0,0,0,0,0,0,0,0,0,0,0,0,0,0,0,0,0,0,0,0,0,0,0,0,0],"split_type":[0,0,0,0,0,0,0,0,0,0,0,0,0,0,0,0,0,0,0,0,0,0,0,0,0,0,0,0,0,0,0,0,0,0,0,0,0,0,0,0,0,0,0,0,0,0,0,0,0,0,0,0,0,0,0,0,0,0,0,0,0,0,0,0,0,0,0,0,0,0,0,0,0,0,0,0,0,0,0,0,0,0,0,0,0,0,0,0,0,0,0,0,0],"sum_hessian":[8.8890454E2,6.766954E2,2.1220917E2,3.9233792E2,2.8435742E2,7.784256E1,1.3436661E2,1.068905E2,2.8544742E2,4.424004E1,2.4011737E2,9.94172E0,6.790084E1,4.3233986E0,1.3004321E2,1.01165146E2,5.7253513E0,1.8047269E2,1.0497475E2,8.876524E0,3.5363518E1,1.7383113E2,6.628624E1,1.7295216E0,8.212198E0,4.3422367E1,2.447847E1,3.1821637E0,1.141235E0,2.1702123E0,1.27873E2,4.8337437E1,5.2827713E1,1.0901465E0,4.635205E0,1.6911612E2,1.1356557E1,6.1961628E1,4.3013123E1,1.7228996E0,7.153624E0,6.753744E0,2.8609772E1,1.1158371E2,6.224743E1,4.198767E1,2.4298569E1,1.0500064E0,7.1621914E0,5.887882E0,3.7534485E1,9.924682E0,1.4553787E1,6.2598853E0,1.2161311E2,3.907065E0,4.443037E1,9.5687685E0,4.3258945E1,2.902697E1,1.4008916E2,6.0640116E0,5.2925453E0,4.480335E1,1.7158278E1,2.2319767E1,2.0693356E1,1.532068E0,5.621556E0,4.7670636E0,1.9866805E0,2.5123623E1,3.486149E0,8.316749E1,2.8416216E1,2.5236511E0,5.9723778E1,2.5415497E0,3.944612E1,5.7295475E0,1.8569021E1,4.7461286E0,1.1417539E0,2.846527E1,9.069217E0,2.433744E0,7.490938E0,1.1503787E0,1.3403408E1,2.2159085E0,4.043977E0,7.534473E1,4.626839E1],"tree_param":{"num_deleted":"0","num_feature":"7","num_nodes":"93","size_leaf_vector":"0"}},{"base_weights":[9.474186E-4,-2.9815772E-1,2.1885279E-1,3.7377805E-1,-4.4171053E-1,3.868457E-1,-7.30775E-1,-2.4476478E-1,8.074995E-1,-8.7457925E-1,-1.8060692E-1,1.1279457E0,2.8198996E-1,-8.9675486E-1,1.0403214E0,-1.0479606E0,2.126594E-1,-5.2499896E-1,9.7075623E-1,2.159434E-1,-1.0744404E0,-8.865486E-1,-5.8461268E-2,1.2227751E0,7.6907887E-3,6.1744285E-1,3.9771643E-2,-1.2033795E0,-3.5214636E-1,-1.2073804E-1,-1.1629128E0,-3.720008E-1,9.950435E-1,3.793199E-1,-9.16644E-1,1.654267E-1,1.144009E0,8.133513E-1,-5.283468E-1,-1.1231893E0,3.3897984E-1,-1.0623254E0,2.2830737E-1,-1.907167E-1,6.997228E-1,1.2613375E0,-1.5923549E-1,-9.206926E-1,8.94908E-1,-1.2603772E-2,8.3500284E-1,-3.822884E-1,6.0937345E-1,-1.2414185E0,7.040267E-3,-1.0217744E0,1.0632867E0,-8.169316E-1,4.1559145E-1,1.2105674E0,-1.4883214E-1,-3.6438373E-1,8.718045E-1,1.2975714E0,6.314865E-1,2.8223512E-1,1.2663413E0,1.4836265E-1,-1.1588639E0,-1.2097851E0,-8.1184703E-1,1.0552541E0,-8.02756E-1,-1.2684244E-1,-1.1356151E0,9.534848E-1,-9.37835E-1,-2.966359E-1,5.725808E-1,-5.9603703E-1,1.1508368E0,-3.758644E-1,8.4503603E-1,6.1502194E-1,1.0757246E0,9.951426E-1,-6.1457896E-1,-4.770198E-1,8.280864E-1,-1.206707E0,4.7543186E-1,2.7954835E-1,1.1343008E0],"categories":[],"categories_nodes":[],"categories_segments":[],"categories_sizes":[],"default_left":[1,1,1,1,1,1,1,1,1,1,1,1,1,1,0,1,1,1,1,1,1,1,1,1,1,1,1,1,1,0,0,1,1,0,0,1,1,1,1,1,1,1,1,1,1,0,0,0,0,1,1,1,1,0,0,1,1,0,0,0,0,0,0,0,0,0,0,0,0,0,0,0,0,0,0,0,0,0,0,0,0,0,0,0,0,0,0,0,0,0,0,0,0],"id":3,"left_children":[1,3,5,7,9,11,13,15,17,19,21,23,25,27,-1,29,31,33,35,37,39,41,43,45,47,49,51,53,55,-1,-1,57,59,-1,-1,61,63,65,67,69,71,73,75,77,79,-1,-1,-1,-1,81,83,85,87,-1,-1,89,91,-1,-1,-1,-1,-1,-1,-1,-1,-1,-1,-1,-1,-1,-1,-1,-1,-1,-1,-1,-1,-1,-1,-1,-1,-1,-1,-1,-1,-1,-1,-1,-1,-1,-1,-1,-1],"loss_changes":[5.339202E1,3.3468937E1,7.588782E1,1.6648277E1,3.204775E1,3.1024845E1,2.1975838E1,9.790795E0,8.401484E0,2.3542007E1,1.5382694E1,5.2661705E0,2.8794104E1,1.0595299E1,0E0,8.847685E-1,8.3403635E0,1.9799397E0,4.3689327E0,8.165456E0,6.620018E0,5.402727E0,1.5542063E1,2.640541E0,4.8451242E0,2.03862E1,5.0004326E1,1.9334946E0,2.4954979E1,0E0,0E0,4.089014E0,2.084394E0,0E0,0E0,2.9197855E0,1.2832756E0,2.059289E0,3.7358284E0,1.3840637E0,3.9442556E0,1.4275665E0,4.6230526E0,1.0811638E1,1.4152352E1,0E0,0E0,0E0,0E0,1.2511424E1,5.1903152E0,3.88572E1,2.1423214E1,0E0,0E0,5.44825E0,1.6030693E-1,0E0,0E0,0E0,0E0,0E0,0E0,0E0,0E0,0E0,0E0,0E0,0E0,0E0,0E0,0E0,0E0,0E0,0E0,0E0,0E0,0E0,0E0,0E0,0E0,0E0,0E0,0E0,0E0,0E0,0E0,0E0,0E0,0E0,0E0,0E0,0E0],"parents":[2147483647,0,0,1,1,2,2,3,3,4,4,5,5,6,6,7,7,8,8,9,9,10,10,11,11,12,12,13,13,15,15,16,16,17,17,18,18,19,19,20,20,21,21,22,22,23,23,24,24,25,25,26,26,27,27,28,28,31,31,32,32,35,35,36,36,37,37,38,38,39,39,40,40,41,41,42,42,43,43,44,44,49,49,50,50,51,51,52,52,55,55,56,56],"right_children":[2,4,6,8,10,12,14,16,18,20,22,24,26,28,-1,30,32,34,36,38,40,42,44,46,48,50,52,54,56,-1,-1,58,60,-1,-1,62,64,66,68,70,72,74,76,78,80,-1,-1,-1,-1,82,84,86,88,-1,-1,90,92,-1,-1,-1,-1,-1,-1,-1,-1,-1,-1,-1,-1,-1,-1,-1,-1,-1,-1,-1,-1,-1,-1,-1,-1,-1,-1,-1,-1,-1,-1,-1,-1,-1,-1,-1,-1],"split_conditions":[1.5478793E-1,-2.2818364E-2,2.0510907E0,-1.6150203E0,-6.133224E-1,-2.6572409E0,2.571804E0,-7.096982E-1,-2.4860845E0,-1.3607161E0,-2.6818275E0,3.2720368E0,-8.783393E-2,-5.874969E-1,3.1209642E-1,1.2173128E0,-8.063272E-2,-7.6038957E-1,-1.7653022E0,3.0066824E-1,2.600551E0,5.266609E-1,2.0339248E0,1.9374864E0,-1.9593342E-1,-1.077698E0,2.7614856E-1,1.9364102E0,-1.4583781E0,-3.622141E-2,-3.4887385E-1,1.8937343E0,5.8148127E-2,1.1379597E-1,-2.749932E-1,2.5342298E-1,-2.9604873E-1,-2.2836879E-1,-2.6253722E0,-1.0771362E0,1.6023779E0,-2.7073717E-1,1.3528562E0,2.946303E0,-1.631765E-1,3.7840128E-1,-4.777065E-2,-2.762078E-1,2.684724E-1,5.8376276E-1,-4.8588008E-1,-2.506957E0,-2.415687E0,-3.7242556E-1,2.11208E-3,3.073696E0,-9.81349E-1,-2.4507949E-1,1.2467744E-1,3.631702E-1,-4.4649646E-2,-1.0931512E-1,2.6154137E-1,3.8927144E-1,1.8944596E-1,8.4670536E-2,3.7990242E-1,4.4508796E-2,-3.4765917E-1,-3.6293554E-1,-2.4355412E-1,3.1657624E-1,-2.4082682E-1,-3.8052734E-2,-3.4068453E-1,2.8604543E-1,-2.813505E-1,-8.899077E-2,1.7177425E-1,-1.7881112E-1,3.4525105E-1,-1.1275932E-1,2.5351083E-1,1.845066E-1,3.227174E-1,2.985428E-1,-1.8437369E-1,-1.4310594E-1,2.4842592E-1,-3.6201212E-1,1.4262956E-1,8.386451E-2,3.4029025E-1],"split_indices":[4,3,5,0,0,1,3,2,4,5,4,6,6,0,0,5,1,3,2,2,2,1,0,5,0,2,0,2,2,0,0,2,6,0,0,1,3,6,5,0,3,0,6,3,5,0,0,0,0,1,1,5,2,0,0,0,2,0,0,0,0,0,0,0,0,0,0,0,0,0,0,0,0,0,0,0,0,0,0,0,0,0,0,0,0,0,0,0,0,0,0,0,0],"split_type":[0,0,0,0,0,0,0,0,0,0,0,0,0,0,0,0,0,0,0,0,0,0,0,0,0,0,0,0,0,0,0,0,0,0,0,0,0,0,0,0,0,0,0,0,0,0,0,0,0,0,0,0,0,0,0,0,0,0,0,0,0,0,0,0,0,0,0,0,0,0,0,0,0,0,0,0,0,0,0,0,0,0,0,0,0,0,0,0,0,0,0,0,0],"sum_hessian":[8.1718866E2,3.4426678E2,4.729219E2,6.0319958E1,2.839468E2,4.0233914E2,7.058276E1,2.5042204E1,3.5277752E1,1.0594956E2,1.7799725E2,4.8660328E1,3.536788E2,6.49862E1,5.5965667E0,8.6182785E0,1.6423927E1,3.6086028E0,3.1669147E1,1.6397537E1,8.9552025E1,2.5332096E1,1.5266516E2,4.4778336E1,3.8819935E0,1.4764847E2,2.0603035E2,4.0803463E1,2.4182732E1,1.1767513E0,7.441527E0,9.699907E0,6.7240195E0,1.1000435E0,2.5085595E0,5.952945E0,2.5716204E1,9.044855E0,7.352682E0,8.676485E1,2.787184E0,2.1922712E1,3.4093854E0,1.3062735E2,2.20378E1,4.3647743E1,1.1305914E0,1.8785498E0,2.0034437E0,3.8139572E1,1.0950889E2,1.185309E2,8.749945E1,3.9535408E1,1.268057E0,1.6605124E1,7.577609E0,6.1745152E0,3.5253918E0,5.6089106E0,1.115109E0,3.6782606E0,2.2746847E0,1.8608864E1,7.1073394E0,4.9105005E0,4.1343546E0,3.9152713E0,3.4374108E0,6.562608E1,2.113876E1,1.7592528E0,1.0279311E0,1.7911283E0,2.0131584E1,2.2145839E0,1.1948014E0,1.1524651E2,1.538084E1,5.6080966E0,1.6429703E1,2.718632E1,1.0953251E1,5.907697E1,5.0431923E1,1.6630674E1,1.0190022E2,1.4465455E1,7.3034E1,1.49522705E1,1.6528529E0,1.0396924E0,6.5379167E0],"tree_param":{"num_deleted":"0","num_feature":"7","num_nodes":"93","size_leaf_vector":"0"}},{"base_weights":[2.1336207E-3,-5.321564E-1,8.431318E-2,-8.840213E-1,-5.4898493E-2,-2.0214882E-1,2.8129557E-1,-9.936467E-1,-5.950379E-2,2.8989223E-1,-5.115648E-1,1.16558544E-1,-7.9916793E-1,1.2092662E-2,6.2607425E-1,-5.960697E-1,-1.1186081E0,-8.465064E-1,1.1333833E0,6.391909E-1,-3.0377746E-1,-8.344444E-1,4.1879895E-1,4.594767E-1,-8.371173E-1,-9.396036E-1,9.0665925E-1,-1.580752E-1,6.267652E-1,3.0573788E-1,1.1784419E0,-8.92896E-1,1.8069902E-2,-1.1716741E0,-2.0430732E-1,-1.7530769E-1,-9.735545E-1,1.399058E0,-1.9330497E-1,7.9999095E-1,-6.60062E-1,-1.0501262E0,1.0969897E-2,-4.4137058E-1,8.600593E-1,-2.551246E-1,7.545441E-1,1.116218E0,-9.144081E-1,-1.2003459E0,-5.663126E-1,1.2194177E0,-1.6749133E-1,-3.9294022E-1,3.8043994E-1,1.037066E0,1.224001E-1,-9.511054E-2,1.0086262E0,1.03646E0,1.484337E0,-6.2638074E-2,-1.0524178E0,6.4784384E-1,-6.3895684E-1,-1.2059712E0,-2.6641917E-1,2.4411574E-1,-5.16229E-1,1.5780613E0,4.6389812E-1,-8.814836E-1,5.8317274E-1,-9.344542E-1,1.8182723E-1,-1.1278548E0,-2.1250577E-1,-4.260031E-1,4.2021435E-1,2.4136251E-1,1.0450991E0,9.0071964E-1,-5.397718E-1,5.2369887E-1,1.0932684E0,-9.8423445E-1,6.663088E-1,-8.961206E-1,-1.3149271E0,-1.0229677E0,3.979277E-1,6.0668413E-2,-8.388253E-1,-1.7502286E0,5.6823766E-1,1.2256993E0,4.70324E-1,-2.7649382E-1,1.1599305E0,1.0954535E0,-3.146944E-1,1.0514774E0,-7.013475E-2,3.4809193E-1,1.0946177E0,1.5795052E0,3.9402983E-1],"categories":[],"categories_nodes":[],"categories_segments":[],"categories_sizes":[],"default_left":[1,1,1,1,1,1,1,1,1,1,1,1,1,1,1,1,1,1,0,1,1,1,1,1,1,1,1,1,1,1,1,1,1,1,1,0,0,1,1,0,1,1,1,0,1,1,1,0,1,1,1,0,0,1,1,1,1,1,1,1,1,0,0,0,0,0,0,0,0,0,0,0,0,0,0,0,0,0,0,0,0,0,0,0,0,0,0,0,0,0,0,0,0,0,0,0,0,0,0,0,0,0,0,0,0,0,0],"id":4,"left_children":[1,3,5,7,9,11,13,15,17,19,21,23,25,27,29,31,33,35,-1,37,39,41,43,45,47,49,51,53,55,57,59,61,63,65,67,-1,-1,69,71,-1,73,75,77,-1,79,81,83,-1,85,87,89,-1,-1,91,93,95,97,99,101,103,105,-1,-1,-1,-1,-1,-1,-1,-1,-1,-1,-1,-1,-1,-1,-1,-1,-1,-1,-1,-1,-1,-1,-1,-1,-1,-1,-1,-1,-1,-1,-1,-1,-1,-1,-1,-1,-1,-1,-1,-1,-1,-1,-1,-1,-1,-1],"loss_changes":[3.2978134E1,1.676538E1,3.678764E1,5.1442604E0,7.0065675E0,5.0669632E1,3.583069E1,1.8544693E0,8.300341E0,5.473135E0,6.087086E0,5.7343796E1,2.3044296E1,2.2885216E1,2.9592339E1,2.618672E0,1.5786438E0,2.79891E-1,0E0,1.0612745E1,4.5029693E0,2.6579208E0,2.5000927E0,2.7340471E1,8.028633E0,7.6989365E0,2.742495E0,2.1829338E1,9.689209E0,3.0663979E1,1.1449661E0,1.2114573E0,2.7443588E0,7.717171E-1,5.829443E-1,0E0,0E0,7.1908E-1,5.152461E0,0E0,2.0616672E0,5.1385975E-1,8.835488E-1,0E0,2.0930886E-1,1.3111492E1,6.5725403E0,0E0,5.6448936E0,5.572281E-1,1.6828701E1,0E0,0E0,2.429104E1,2.2027E1,2.205494E0,9.596226E0,1.8646025E1,1.8991203E0,1.4410248E0,1.1698608E0,0E0,0E0,0E0,0E0,0E0,0E0,0E0,0E0,0E0,0E0,0E0,0E0,0E0,0E0,0E0,0E0,0E0,0E0,0E0,0E0,0E0,0E0,0E0,0E0,0E0,0E0,0E0,0E0,0E0,0E0,0E0,0E0,0E0,0E0,0E0,0E0,0E0,0E0,0E0,0E0,0E0,0E0,0E0,0E0,0E0,0E0],"parents":[2147483647,0,0,1,1,2,2,3,3,4,4,5,5,6,6,7,7,8,8,9,9,10,10,11,11,12,12,13,13,14,14,15,15,16,16,17,17,19,19,20,20,21,21,22,22,23,23,24,24,25,25,26,26,27,27,28,28,29,29,30,30,31,31,32,32,33,33,34,34,37,37,38,38,40,40,41,41,42,42,44,44,45,45,46,46,48,48,49,49,50,50,53,53,54,54,55,55,56,56,57,57,58,58,59,59,60,60],"right_children":[2,4,6,8,10,12,14,16,18,20,22,24,26,28,30,32,34,36,-1,38,40,42,44,46,48,50,52,54,56,58,60,62,64,66,68,-1,-1,70,72,-1,74,76,78,-1,80,82,84,-1,86,88,90,-1,-1,92,94,96,98,100,102,104,106,-1,-1,-1,-1,-1,-1,-1,-1,-1,-1,-1,-1,-1,-1,-1,-1,-1,-1,-1,-1,-1,-1,-1,-1,-1,-1,-1,-1,-1,-1,-1,-1,-1,-1,-1,-1,-1,-1,-1,-1,-1,-1,-1,-1,-1,-1],"split_conditions":[-1.5484262E0,-5.8910394E-1,-8.9641833E-1,2.7619486E0,3.7451798E-1,1.3205087E0,-6.525353E-1,-1.8050504E0,9.7115016E-1,-1.1379576E0,1.2786504E0,1.3001108E0,2.0943027E0,2.1689267E0,8.3795214E-1,-2.2133236E0,-8.085572E-1,4.475047E-2,3.40015E-1,3.2893258E-1,2.4042013E-1,-1.8324677E0,-2.2222621E0,3.52426E-1,-9.939707E-1,-1.9164437E0,2.308404E0,1.666112E0,-3.362382E-1,1.8015347E0,-1.1469551E0,-2.5836258E0,8.430865E-1,1.2740486E0,-7.0208144E-1,-5.259231E-2,-2.9206637E-1,9.867029E-1,9.080756E-2,2.399973E-1,-7.950364E-2,2.3768067E0,1.22252375E-1,-1.3241118E-1,-7.97839E-1,-1.379072E0,1.1679015E0,3.348654E-1,2.7792993E0,-5.743794E-2,-4.653047E-1,3.6582533E-1,-5.02474E-2,4.5348465E-1,-1.1639125E0,9.250077E-2,2.0348272E0,-1.5423682E-1,5.3658743E0,-1.0736196E0,3.2552338E-1,-1.8791422E-2,-3.1572533E-1,1.9435316E-1,-1.9168706E-1,-3.6179137E-1,-7.992575E-2,7.323472E-2,-1.5486869E-1,4.734184E-1,1.3916944E-1,-2.644451E-1,1.7495182E-1,-2.8033626E-1,5.454817E-2,-3.3835647E-1,-6.3751735E-2,-1.2780094E-1,1.2606432E-1,7.240876E-2,3.1352976E-1,2.702159E-1,-1.6193154E-1,1.5710966E-1,3.2798052E-1,-2.9527035E-1,1.9989266E-1,-2.688362E-1,-3.9447814E-1,-3.068903E-1,1.1937831E-1,1.8200524E-2,-2.516476E-1,-5.2506864E-1,1.7047131E-1,3.6770982E-1,1.410972E-1,-8.294815E-2,3.4797916E-1,3.2863605E-1,-9.4408326E-2,3.1544325E-1,-2.1040427E-2,1.0442758E-1,3.2838532E-1,4.738516E-1,1.1820895E-1],"split_indices":[4,1,0,5,6,5,2,2,0,2,1,6,2,3,5,4,1,3,0,5,3,4,2,4,3,0,5,0,5,4,1,1,5,6,1,0,0,0,0,0,6,0,1,0,0,5,3,0,3,4,2,0,0,5,5,1,0,3,6,4,1,0,0,0,0,0,0,0,0,0,0,0,0,0,0,0,0,0,0,0,0,0,0,0,0,0,0,0,0,0,0,0,0,0,0,0,0,0,0,0,0,0,0,0,0,0,0],"split_type":[0,0,0,0,0,0,0,0,0,0,0,0,0,0,0,0,0,0,0,0,0,0,0,0,0,0,0,0,0,0,0,0,0,0,0,0,0,0,0,0,0,0,0,0,0,0,0,0,0,0,0,0,0,0,0,0,0,0,0,0,0,0,0,0,0,0,0,0,0,0,0,0,0,0,0,0,0,0,0,0,0,0,0,0,0,0,0,0,0,0,0,0,0,0,0,0,0,0,0,0,0,0,0,0,0,0,0],"sum_hessian":[7.4905646E2,9.912436E1,6.4993207E2,5.6567158E1,4.25572E1,2.6480814E2,3.8512396E2,4.9747723E1,6.8194327E0,2.4456976E1,1.8100227E1,1.7316959E2,9.163854E1,2.1684592E2,1.6827803E2,1.32766905E1,3.6471035E1,4.28367E0,2.535763E0,1.5349236E1,9.107739E0,1.3513509E1,4.586719E0,1.2775151E2,4.5418068E1,8.5083084E1,6.555456E0,1.704115E2,4.643442E1,1.0749286E2,6.0785175E1,8.644654E0,4.632036E0,3.420432E1,2.2667139E0,1.0605589E0,3.223111E0,7.6688623E0,7.6803727E0,1.9185884E0,7.1891513E0,1.0573784E1,2.939725E0,1.5550796E0,3.031639E0,3.7373894E1,9.0377625E1,1.2170973E0,4.420097E1,4.878876E1,3.6294327E1,4.9724097E0,1.5830466E0,1.1884808E2,5.1563423E1,2.502247E1,2.141195E1,6.900491E1,3.848795E1,4.4512768E1,1.6272408E1,1.6177038E0,7.026951E0,2.3722045E0,2.2598317E0,3.263567E1,1.5686486E0,1.0190681E0,1.2476457E0,5.8597436E0,1.8091187E0,4.000005E0,3.6803682E0,5.33907E0,1.8500819E0,9.358815E0,1.2149683E0,1.4018943E0,1.5378305E0,1.2284825E0,1.8031567E0,6.9575567E0,3.0416336E1,5.5261944E1,3.511568E1,4.269243E1,1.5085407E0,1.5761401E1,3.302736E1,2.4588526E1,1.17058E1,5.9342052E1,5.950603E1,3.5027745E0,4.8060646E1,1.790147E1,7.121001E0,1.5995681E1,5.4162683E0,1.0124112E1,5.88808E1,3.7041843E1,1.4461064E0,4.011924E0,4.0500843E1,1.4553423E1,1.7189842E0],"tree_param":{"num_deleted":"0","num_feature":"7","num_nodes":"107","size_leaf_vector":"0"}},{"base_weights":[2.8886318E-3,8.745025E-1,-4.73603E-2,1.1397392E0,-5.68694E-1,-9.306478E-2,7.790804E-1,1.3465443E0,7.40951E-1,-1.0122504E0,5.5018056E-2,-1.646587E-1,5.202454E-1,9.18514E-1,-6.9178775E-2,8.762596E-1,-1.5179631E-1,-5.001351E-1,5.351638E-1,-5.1828945E-1,1.738448E-3,-4.3365818E-2,1.0870161E0,9.6896446E-1,-1.721611E-1,-8.679315E-1,7.530333E-1,1.0164458E0,-7.426503E-2,1.0365508E0,-6.0664725E-1,-6.8314046E-1,5.6677554E-2,-6.432739E-1,6.5446717E-1,-5.307486E-1,1.2009231E0,7.257676E-1,1.2732714E0,1.0587648E0,2.1334387E-2,1.7865539E-1,1.0939634E0,1.2475873E0,-5.911238E-2,-3.9838955E-1,-1.0697373E0,-8.025351E-1,1.742589E-1,-4.688752E-2,6.127896E-1,3.9660016E-1,-9.890619E-1,8.776645E-1,-4.1731814E-1,2.197654E-1,1.2314125E0,8.40247E-1,-5.0287515E-2,3.5050774E-1,1.329349E0],"categories":[],"categories_nodes":[],"categories_segments":[],"categories_sizes":[],"default_left":[1,1,1,1,1,1,1,0,1,0,1,1,1,1,1,1,0,0,0,1,1,1,1,1,0,0,1,1,0,1,1,1,1,1,1,0,1,1,1,0,0,0,0,0,0,0,0,0,0,0,0,0,0,0,0,0,0,0,0,0,0],"id":5,"left_children":[1,3,5,7,9,11,13,-1,15,-1,17,19,21,23,25,27,-1,-1,-1,29,31,33,35,37,-1,-1,39,41,-1,43,45,47,49,51,53,-1,55,57,59,-1,-1,-1,-1,-1,-1,-1,-1,-1,-1,-1,-1,-1,-1,-1,-1,-1,-1,-1,-1,-1,-1],"loss_changes":[3.0080914E1,1.4978544E1,2.4602917E1,1.6378593E0,1.8481834E0,2.7146648E1,4.1014824E0,0E0,1.7198853E0,0E0,1.2382375E0,3.2519432E1,2.0702766E1,1.784029E0,4.42956E0,1.6152477E0,0E0,0E0,0E0,2.492249E1,1.4216361E1,1.4396387E1,6.585617E0,1.1659927E0,0E0,0E0,7.30981E-1,4.6297455E-1,0E0,2.3577433E0,1.577174E1,3.0120907E0,2.0171597E1,7.0283856E0,4.1764984E0,0E0,6.4065933E-1,1.6434317E0,1.14608765E-1,0E0,0E0,0E0,0E0,0E0,0E0,0E0,0E0,0E0,0E0,0E0,0E0,0E0,0E0,0E0,0E0,0E0,0E0,0E0,0E0,0E0,0E0],"parents":[2147483647,0,0,1,1,2,2,3,3,4,4,5,5,6,6,8,8,10,10,11,11,12,12,13,13,14,14,15,15,19,19,20,20,21,21,22,22,23,23,26,26,27,27,29,29,30,30,31,31,32,32,33,33,34,34,36,36,37,37,38,38],"right_children":[2,4,6,8,10,12,14,-1,16,-1,18,20,22,24,26,28,-1,-1,-1,30,32,34,36,38,-1,-1,40,42,-1,44,46,48,50,52,54,-1,56,58,60,-1,-1,-1,-1,-1,-1,-1,-1,-1,-1,-1,-1,-1,-1,-1,-1,-1,-1,-1,-1,-1,-1],"split_conditions":[-1.2277346E0,2.4304595E0,1.6042325E0,-1.5565038E0,-1.9455416E0,1.9710178E0,1.1554487E0,4.039633E-1,3.7403274E0,-3.0367514E-1,-6.690104E-1,-1.0213697E0,3.752429E-1,1.7089965E0,-8.5522306E-1,1.503319E0,-4.5538895E-2,-1.5004054E-1,1.6054915E-1,-2.252214E0,-2.3514776E0,1.4512976E0,-3.922941E0,2.2909844E0,-5.1648334E-2,-2.6037946E-1,-1.0523102E0,-1.5323002E0,-2.227951E-2,1.7461079E0,7.620657E-1,5.434046E-1,2.5137613E0,5.0932634E-1,2.2592692E0,-1.5922458E-1,-8.962087E-1,2.1419358E0,-4.3942194E0,3.1762946E-1,6.4003165E-3,5.359662E-2,3.2818902E-1,3.7427622E-1,-1.7733715E-2,-1.1951687E-1,-3.209212E-1,-2.4076055E-1,5.2277673E-2,-1.4066257E-2,1.8383688E-1,1.1898005E-1,-2.9671857E-1,2.6329938E-1,-1.2519544E-1,6.592962E-2,3.6942378E-1,2.520741E-1,-1.5086255E-2,1.05152324E-1,3.9880472E-1],"split_indices":[3,5,1,3,0,2,5,0,4,0,2,0,5,2,0,5,0,0,0,5,4,4,0,1,0,0,4,3,0,6,6,1,3,3,6,0,3,1,0,0,0,0,0,0,0,0,0,0,0,0,0,0,0,0,0,0,0,0,0,0,0],"split_type":[0,0,0,0,0,0,0,0,0,0,0,0,0,0,0,0,0,0,0,0,0,0,0,0,0,0,0,0,0,0,0,0,0,0,0,0,0,0,0,0,0,0,0,0,0,0,0,0,0,0,0,0,0,0,0,0,0,0,0,0,0],"sum_hessian":[6.848699E2,3.6436794E1,6.4843304E2,3.0957554E1,5.4792404E0,6.15293E2,3.314003E1,1.88208E1,1.2136751E1,2.8380208E0,2.6412199E0,5.516307E2,6.3662334E1,2.8390488E1,4.749543E0,1.0555398E1,1.5813534E0,1.2056239E0,1.4355959E0,1.7583266E2,3.7579803E2,3.2383175E1,3.1279161E1,2.724197E1,1.1485168E0,2.3809352E0,2.3686078E0,9.138303E0,1.4170953E0,8.877807E0,1.6695485E2,2.7057745E1,3.487403E2,1.7455414E1,1.4927761E1,1.8167822E0,2.946238E1,1.7022707E1,1.0219264E1,1.355312E0,1.0132959E0,1.0538013E0,8.084501E0,7.327744E0,1.5500624E0,1.16447266E2,5.0507584E1,2.3806612E1,3.251132E0,2.9476224E2,5.397806E1,4.3192787E0,1.3136134E1,1.2504782E1,2.422979E0,1.1353235E0,2.8327055E1,1.4762334E1,2.2603729E0,1.0008332E0,9.2184305E0],"tree_param":{"num_deleted":"0","num_feature":"7","num_nodes":"61","size_leaf_vector":"0"}},{"base_weights":[5.528561E-3,-2.2437258E-1,1.3167115E-1,3.002653E-1,-3.3713132E-1,-5.3415205E-2,4.8087534E-1,-8.3473645E-2,7.731421E-1,-6.767469E-1,-1.4016181E-1,6.0039304E-2,-8.251804E-1,-1.1437115E-1,7.459132E-1,-4.5747724E-1,7.376801E-1,3.7048596E-1,1.0348779E0,-1.6337453E-1,-9.522439E-1,-1.1505263E0,-6.8502575E-2,1.0705286E0,-3.277756E-2,-3.1955466E-1,-1.0115374E0,7.327555E-1,-3.0951184E-1,-5.209041E-1,7.837579E-1,-8.0410784E-1,3.432093E-1,-5.314811E-1,1.1974542E0,7.6495546E-1,-2.2618154E-1,1.113809E0,1.7383085E-1,8.731969E-1,-6.2819153E-1,-1.0578684E0,1.2883386E-1,2.2867127E-1,-2.6521447E-1,3.010536E-1,1.160773E0,5.2681565E-1,-1.6509609E-1,-8.6860484E-1,3.245816E-1,-1.0585403E0,5.5040285E-2,1.1085748E-1,1.0042648E0,5.302948E-1,-4.7439376E-1,-7.237263E-1,-8.892014E-3,6.791113E-1,1.1613463E0,-5.230642E-2,-9.005467E-1,-2.3400635E-1,8.1173587E-1,-1.9710997E-1,1.0445337E0,4.6689424E-1,-6.2348557E-1,-2.2355825E-2,1.1752167E0,4.3997088E-1,-9.503956E-1,-1.1314781E0,-5.777396E-1,7.534827E-1,-7.683964E-1,-2.4454042E-1,5.897124E-1,-3.6404684E-1,5.660932E-1,8.8709486E-1,-3.7688574E-1,1.2231915E0,1.0700663E-1,7.212568E-2,1.0464988E0,6.2372077E-1,-3.096857E-1,6.709935E-1,-3.1477398E-1,-1.0989584E0,-2.4691974E-1,7.3117775E-1,-6.4700603E-1,-4.3517196E-1,1.0662867E0,-1.1109391E0,-1.5655698E-1,2.4738136E-1,7.935957E-1,1.191123E0,3.1748575E-1],"categories":[],"categories_nodes":[],"categories_segments":[],"categories_sizes":[],"default_left":[1,1,1,1,1,1,1,1,1,1,1,1,1,1,1,1,1,1,1,1,1,0,1,1,1,1,1,1,1,1,1,1,1,0,0,1,1,0,0,1,1,1,1,1,1,1,1,1,1,0,1,1,0,1,0,1,1,0,0,1,1,0,0,0,0,0,0,0,0,0,0,0,0,0,0,0,0,0,0,0,0,0,0,0,0,0,0,0,0,0,0,0,0,0,0,0,0,0,0,0,0,0,0],"id":6,"left_children":[1,3,5,7,9,11,13,15,17,19,21,23,25,27,29,31,33,35,37,39,41,-1,43,45,47,49,51,53,55,57,59,61,63,-1,-1,65,67,-1,-1,69,71,73,75,77,79,81,83,85,87,-1,89,91,-1,93,-1,95,97,-1,-1,99,101,-1,-1,-1,-1,-1,-1,-1,-1,-1,-1,-1,-1,-1,-1,-1,-1,-1,-1,-1,-1,-1,-1,-1,-1,-1,-1,-1,-1,-1,-1,-1,-1,-1,-1,-1,-1,-1,-1,-1,-1,-1,-1],"loss_changes":[1.891439E1,1.3771415E1,2.7243462E1,7.5785522E0,1.2659998E1,2.422783E1,2.3115524E1,7.6348724E0,1.58181E0,9.706652E0,8.750018E0,2.2701864E1,3.0179062E0,7.804688E0,5.257107E0,4.9783115E0,5.198688E0,2.2686458E0,5.365534E-1,1.2863385E1,5.294361E0,0E0,6.7791452E0,1.0644207E0,1.65481E1,4.1761494E0,1.3340015E0,1.3880005E0,5.5080166E0,3.6061394E-1,3.1075172E0,8.318558E-1,1.763823E0,0E0,0E0,1.7089689E0,1.4794042E0,0E0,0E0,2.2796855E0,6.691578E0,8.045044E-1,3.3319309E0,8.056683E0,5.9257965E0,1.7198985E0,1.0447235E0,1.0026838E1,2.0786964E1,0E0,1.4946401E0,5.2981186E-1,0E0,2.2701607E0,0E0,3.93223E0,6.35266E0,0E0,0E0,3.7387733E0,1.2411499E-1,0E0,0E0,0E0,0E0,0E0,0E0,0E0,0E0,0E0,0E0,0E0,0E0,0E0,0E0,0E0,0E0,0E0,0E0,0E0,0E0,0E0,0E0,0E0,0E0,0E0,0E0,0E0,0E0,0E0,0E0,0E0,0E0,0E0,0E0,0E0,0E0,0E0,0E0,0E0,0E0,0E0,0E0],"parents":[2147483647,0,0,1,1,2,2,3,3,4,4,5,5,6,6,7,7,8,8,9,9,10,10,11,11,12,12,13,13,14,14,15,15,16,16,17,17,18,18,19,19,20,20,22,22,23,23,24,24,25,25,26,26,27,27,28,28,29,29,30,30,31,31,32,32,35,35,36,36,39,39,40,40,41,41,42,42,43,43,44,44,45,45,46,46,47,47,48,48,50,50,51,51,53,53,55,55,56,56,59,59,60,60],"right_children":[2,4,6,8,10,12,14,16,18,20,22,24,26,28,30,32,34,36,38,40,42,-1,44,46,48,50,52,54,56,58,60,62,64,-1,-1,66,68,-1,-1,70,72,74,76,78,80,82,84,86,88,-1,90,92,-1,94,-1,96,98,-1,-1,100,102,-1,-1,-1,-1,-1,-1,-1,-1,-1,-1,-1,-1,-1,-1,-1,-1,-1,-1,-1,-1,-1,-1,-1,-1,-1,-1,-1,-1,-1,-1,-1,-1,-1,-1,-1,-1,-1,-1,-1,-1,-1,-1],"split_conditions":[-2.2938624E-1,4.808422E-2,1.3151252E0,-8.5814655E-1,-4.059452E-1,2.2145605E0,5.6899846E-1,3.3853248E-1,-5.9353644E-1,-1.6220427E-1,-2.807291E0,-1.3220937E0,5.6065524E-1,-2.1627784E0,-3.9518886E0,1.3764223E0,-7.210704E-1,-9.735377E-1,-3.5900477E-2,-1.1397884E0,1.5474305E0,-3.451579E-1,1.5192977E0,-2.3935356E0,-1.6447873E0,-1.0301487E0,3.1081846E0,1.0562155E-2,-1.6006737E0,5.2447546E-2,2.6779346E0,-3.7431383E0,-1.9646871E0,-1.5944433E-1,3.5923627E-1,-2.1118217E0,-3.1894755E0,3.341427E-1,5.214926E-2,-1.6838968E0,-2.6345034E0,6.26075E-1,1.5578408E0,-2.016171E-1,3.7875748E0,2.0769463E0,1.7605553E0,-1.7710054E-1,-2.102747E0,-2.6058146E-1,2.747594E-1,4.8594213E0,1.6512087E-2,-9.845793E-1,3.0127946E-1,2.1479473E0,-1.1177018E0,-2.1711789E-1,-2.6676042E-3,-1.4251941E0,2.6550908E0,-1.5691927E-2,-2.7016404E-1,-7.02019E-2,2.4352077E-1,-5.9132993E-2,3.1336012E-1,1.4006828E-1,-1.8704568E-1,-6.7067477E-3,3.5256502E-1,1.3199127E-1,-2.851187E-1,-3.3944345E-1,-1.7332189E-1,2.2604482E-1,-2.3051892E-1,-7.336213E-2,1.7691372E-1,-1.0921406E-1,1.6982797E-1,2.6612848E-1,-1.1306573E-1,3.6695746E-1,3.2101993E-2,2.1637704E-2,3.1394964E-1,1.8711624E-1,-9.2905715E-2,2.0129806E-1,-9.44322E-2,-3.2968754E-1,-7.407592E-2,2.1935333E-1,-1.9410183E-1,-1.3055159E-1,3.1988603E-1,-3.3328176E-1,-4.6967097E-2,7.4214414E-2,2.3807871E-1,3.573369E-1,9.524573E-2],"split_indices":[4,3,3,0,0,5,4,1,6,5,6,3,4,1,0,2,2,4,3,2,2,0,3,2,6,2,0,0,5,1,3,6,0,0,0,1,6,0,0,6,5,2,3,6,3,4,5,1,1,0,6,5,0,0,0,3,0,0,0,2,5,0,0,0,0,0,0,0,0,0,0,0,0,0,0,0,0,0,0,0,0,0,0,0,0,0,0,0,0,0,0,0,0,0,0,0,0,0,0,0,0,0,0],"split_type":[0,0,0,0,0,0,0,0,0,0,0,0,0,0,0,0,0,0,0,0,0,0,0,0,0,0,0,0,0,0,0,0,0,0,0,0,0,0,0,0,0,0,0,0,0,0,0,0,0,0,0,0,0,0,0,0,0,0,0,0,0,0,0,0,0,0,0,0,0,0,0,0,0,0,0,0,0,0,0,0,0,0,0,0,0,0,0,0,0,0,0,0,0,0,0,0,0,0,0,0,0,0,0],"sum_hessian":[6.5019434E2,2.3008119E2,4.2011313E2,4.0408367E1,1.8967282E2,2.7513318E2,1.4497995E2,2.2761177E1,1.7647192E1,6.873091E1,1.2094191E2,2.4067465E2,3.4458534E1,4.4840805E1,1.00139145E2,1.5942757E1,6.818421E0,7.903653E0,9.743538E0,2.455924E1,4.4171673E1,7.012543E0,1.1392937E2,1.9360859E1,2.213138E2,1.0011088E1,2.4447447E1,7.879601E0,3.6961205E1,2.5345066E0,9.760464E1,1.1123105E1,4.8196516E0,1.7717419E0,5.046679E0,4.5882306E0,3.3154223E0,8.65646E0,1.0870788E0,7.3313284E0,1.7227911E1,4.025966E1,3.9120152E0,4.5312714E1,6.861665E1,2.4874492E0,1.687341E1,4.1753036E1,1.7956075E2,5.2163153E0,4.7947736E0,2.3422766E1,1.0246805E0,2.822623E0,5.0569777E0,5.7020874E0,3.1259117E1,1.5192107E0,1.015296E0,7.8615364E1,1.8989279E1,1.4399754E0,9.683129E0,2.383623E0,2.4360287E0,1.099541E0,3.4886897E0,1.1442255E0,2.1711967E0,2.0824375E0,5.248891E0,3.9077005E0,1.332021E1,3.373157E1,6.5280886E0,2.400799E0,1.511216E0,1.9749712E1,2.5563002E1,6.182812E1,6.7885327E0,1.1686764E0,1.3187729E0,1.5778038E1,1.0953715E0,2.287641E1,1.8876629E1,2.7301598E1,1.5225916E2,3.0777311E0,1.7170424E0,2.1974428E1,1.4483382E0,1.571524E0,1.2510991E0,2.1026835E0,3.599404E0,9.579177E0,2.1679941E1,1.7139967E1,6.147539E1,1.7944565E1,1.044714E0],"tree_param":{"num_deleted":"0","num_feature":"7","num_nodes":"103","size_leaf_vector":"0"}},{"base_weights":[6.8306783E-3,-5.1104963E-2,4.8356724E-1,-1.657299E-1,2.2206081E-1,8.367338E-1,2.564926E-1,-2.8521204E-1,4.1426685E-1,-1.4559928E-1,5.17384E-1,9.190321E-1,-4.6819168E-1,1.2053268E-1,9.694414E-1,1.7868257E-1,-5.0786924E-1,-1.2341956E0,5.0977594E-1,-6.034273E-1,5.1001287E-1,-3.8519558E-1,8.30907E-1,2.5337267E-1,1.0007863E0,-5.7490576E-2,6.5451914E-1,1.0981143E0,2.9515788E-1,5.629952E-1,-1.3070573E-1,-5.6910104E-1,7.550165E-2,-6.852556E-1,6.144739E-1,7.610765E-1,-8.009317E-1,8.972118E-1,1.744678E-1,-8.0293673E-1,2.874221E-1,-2.7627634E-2,9.516845E-1,7.533509E-1,-5.732615E-1,1.0584757E0,3.410929E-3,1.8869752E-1,-5.1034945E-1,1.0410088E0,1.1267255E-1,-8.3001065E-1,7.760385E-1,-4.18474E-1,6.565444E-1,-7.469327E-1,-2.566693E-1,-1.2028388E-1,5.30458E-1,-1.0995951E0,3.1670386E-1,-7.812895E-1,6.7426944E-1,-1.5463634E-1,9.894492E-1,-1.1793002E-1,-1.211321E0,1.0046725E0,2.7477342E-1,9.254583E-1,-2.9016748E-1,-2.6007286E-1,-1.3087807E0,-6.258732E-1,5.4427207E-1,-9.2826474E-1,7.818727E-1,6.7764515E-1,1.134611E0,1.1467218E0,2.538346E-1,-3.9985368E-1,4.769033E-1,-1.1491367E0,-7.489534E-2,5.4588974E-1,-7.248299E-1],"categories":[],"categories_nodes":[],"categories_segments":[],"categories_sizes":[],"default_left":[1,1,1,1,1,1,1,1,1,1,1,1,0,1,1,1,1,0,1,1,1,1,1,1,1,1,1,0,0,1,1,1,1,1,1,1,1,1,1,1,1,1,1,0,0,1,0,1,1,0,1,0,0,0,0,0,0,0,0,0,0,0,0,0,0,0,0,0,0,0,0,0,0,0,0,0,0,0,0,0,0,0,0,0,0,0,0],"id":7,"left_children":[1,3,5,7,9,11,13,15,17,19,21,23,-1,25,27,29,31,-1,33,35,37,39,41,43,45,47,49,-1,-1,51,53,55,57,59,61,63,65,67,69,71,73,75,77,-1,-1,79,-1,81,83,-1,85,-1,-1,-1,-1,-1,-1,-1,-1,-1,-1,-1,-1,-1,-1,-1,-1,-1,-1,-1,-1,-1,-1,-1,-1,-1,-1,-1,-1,-1,-1,-1,-1,-1,-1,-1,-1],"loss_changes":[1.6871655E1,1.7094276E1,5.093383E0,2.6750801E1,1.7605501E1,3.1645699E0,3.9279485E0,3.3066837E1,1.1029012E1,2.2128706E1,2.5718376E1,1.0681667E0,0E0,3.4776273E0,2.43402E-1,1.2472591E1,7.757946E0,0E0,8.321583E0,1.2269028E1,3.7975693E0,6.9244285E0,6.966446E0,2.083261E0,1.2214851E0,3.2244859E0,1.7943854E0,0E0,0E0,1.4502318E1,1.3546396E1,1.0674786E1,1.9699067E0,2.6562035E0,5.416378E0,1.4042289E0,1.0587139E1,6.5289116E-1,6.391013E0,3.7674742E0,2.6543846E0,7.4523516E0,2.173935E0,0E0,0E0,1.137888E0,0E0,3.397757E0,2.7376847E0,0E0,2.1814084E0,0E0,0E0,0E0,0E0,0E0,0E0,0E0,0E0,0E0,0E0,0E0,0E0,0E0,0E0,0E0,0E0,0E0,0E0,0E0,0E0,0E0,0E0,0E0,0E0,0E0,0E0,0E0,0E0,0E0,0E0,0E0,0E0,0E0,0E0,0E0,0E0],"parents":[2147483647,0,0,1,1,2,2,3,3,4,4,5,5,6,6,7,7,8,8,9,9,10,10,11,11,13,13,14,14,15,15,16,16,18,18,19,19,20,20,21,21,22,22,23,23,24,24,25,25,26,26,29,29,30,30,31,31,32,32,33,33,34,34,35,35,36,36,37,37,38,38,39,39,40,40,41,41,42,42,45,45,47,47,48,48,50,50],"right_children":[2,4,6,8,10,12,14,16,18,20,22,24,-1,26,28,30,32,-1,34,36,38,40,42,44,46,48,50,-1,-1,52,54,56,58,60,62,64,66,68,70,72,74,76,78,-1,-1,80,-1,82,84,-1,86,-1,-1,-1,-1,-1,-1,-1,-1,-1,-1,-1,-1,-1,-1,-1,-1,-1,-1,-1,-1,-1,-1,-1,-1,-1,-1,-1,-1,-1,-1,-1,-1,-1,-1,-1,-1],"split_conditions":[9.7625977E-1,5.357666E-1,3.2825044E-1,1.7425773E0,1.8099862E-1,2.6304958E0,2.3690748E0,-3.400947E-1,-5.115161E0,1.4636691E0,-2.4865084E0,-3.4380357E0,-1.4045751E-1,1.3656833E0,2.3262107E0,-8.784992E-1,1.239696E0,-3.702587E-1,-1.7263392E0,-8.222853E-3,-1.65795E-1,1.9955654E0,-1.1502612E0,-1.5355297E0,2.8012671E0,1.5846794E0,4.7562763E-1,3.2943428E-1,8.8547364E-2,-1.5506489E0,2.0701194E0,-4.979978E-1,9.652813E-1,2.2245686E0,-2.835536E0,-1.6144272E0,-1.7957822E0,-1.514642E0,-1.1232166E0,2.9617628E-1,-4.065193E0,1.5889907E0,1.3698145E0,2.2600529E-1,-1.7197846E-1,1.8022001E0,1.0232788E-3,-1.1334299E0,-1.745291E0,3.1230265E-1,-4.191625E-1,-2.490032E-1,2.3281157E-1,-1.2554221E-1,1.9696333E-1,-2.2407982E-1,-7.70008E-2,-3.6085166E-2,1.591374E-1,-3.2987854E-1,9.501116E-2,-2.3438686E-1,2.0228083E-1,-4.6390902E-2,2.9683477E-1,-3.5379007E-2,-3.6339632E-1,3.0140176E-1,8.243203E-2,2.776375E-1,-8.7050244E-2,-7.802186E-2,-3.926342E-1,-1.8776198E-1,1.6328162E-1,-2.7847943E-1,2.3456182E-1,2.0329355E-1,3.4038332E-1,3.4401655E-1,7.615039E-2,-1.19956106E-1,1.43071E-1,-3.4474102E-1,-2.2468602E-2,1.6376692E-1,-2.1744898E-1],"split_indices":[1,2,3,0,5,5,1,5,2,4,0,0,0,4,6,1,0,0,5,3,6,2,4,6,4,6,6,0,0,4,3,1,6,4,6,1,5,0,1,3,0,5,2,0,0,5,0,0,2,0,5,0,0,0,0,0,0,0,0,0,0,0,0,0,0,0,0,0,0,0,0,0,0,0,0,0,0,0,0,0,0,0,0,0,0,0,0],"split_type":[0,0,0,0,0,0,0,0,0,0,0,0,0,0,0,0,0,0,0,0,0,0,0,0,0,0,0,0,0,0,0,0,0,0,0,0,0,0,0,0,0,0,0,0,0,0,0,0,0,0,0,0,0,0,0,0,0,0,0,0,0,0,0,0,0,0,0,0,0,0,0,0,0,0,0,0,0,0,0,0,0,0,0,0,0,0,0],"sum_hessian":[6.089536E2,5.4376514E2,6.5188515E1,3.833136E2,1.604515E2,2.4460516E1,4.0727997E1,3.1825897E2,6.505464E1,7.16983E1,8.8753204E1,2.328755E1,1.1729655E0,3.518689E1,5.541107E0,1.0327935E2,2.1497961E2,2.909808E0,6.214483E1,4.2264023E1,2.9434278E1,2.2822496E1,6.593071E1,2.9956381E0,2.0291912E1,2.7058367E1,8.128525E0,4.1253133E0,1.4157937E0,4.569666E1,5.758269E1,1.945805E2,2.0399109E1,4.5593157E0,5.7585514E1,4.983173E0,3.7280853E1,1.2888186E1,1.6546091E1,1.3959162E1,8.863335E0,8.226279E0,5.770443E1,1.9218726E0,1.0737655E0,1.9124468E1,1.1674454E0,1.7906925E1,9.15144E0,4.206721E0,3.921804E0,5.6775355E0,4.0019123E1,4.2511604E1,1.5071086E1,1.23114685E2,7.146583E1,1.4776022E1,5.623087E0,3.156547E0,1.4027689E0,1.8699806E0,5.5715534E1,1.059149E0,3.9240236E0,1.447605E1,2.2804802E1,1.046702E1,2.4211667E0,5.9451475E0,1.0600944E1,7.463541E0,6.4956203E0,1.6301599E0,7.233175E0,3.8244946E0,4.401785E0,2.4982706E1,3.2721725E1,1.6851234E1,2.2732317E0,5.7589865E0,1.214794E1,3.0452652E0,6.1061745E0,2.814258E0,1.1075459E0],"tree_param":{"num_deleted":"0","num_feature":"7","num_nodes":"87","size_leaf_vector":"0"}},{"base_weights":[7.786959E-3,8.327973E-1,-1.6423875E-2,1.0768688E0,-3.5273546E-1,-2.3837349E-1,6.546775E-2,4.906994E-1,1.150829E0,-7.571322E-1,2.257186E-1,2.6177444E-2,-6.0309595E-1,-3.504213E-1,1.5374863E-1,6.181965E-1,1.0462796E-1,1.0188519E0,-2.1342255E-1,-8.123543E-1,9.329694E-1,-8.506151E-1,-1.1906268E-1,4.1060947E-2,5.6928027E-1,-1.252272E-1,1.170333E0,-3.619988E-2,-7.877986E-1,-9.413421E-1,5.6040026E-2,-2.3143515E-1,1.1910343E0,-9.43276E-1,2.8960852E-2,2.73904E-1,-4.167139E-1,1.3102323E-1,-6.2031657E-1,2.317961E-1,9.314835E-1,-3.4591246E-1,1.3117187E0,4.201269E-1,-2.0296426E-1,-1.1279951E0,-1.5168359E-2,-1.0557787E0,-1.7103648E-1,-6.945751E-1,9.2476094E-1,-1.0428756E0,-3.9403743E-1,5.456279E-1,-4.839499E-1,-1.8267569E-1,6.3784885E-1,-5.6536204E-1,9.249376E-1,7.387108E-1,2.5570003E-2,-7.688735E-1,3.9347625E-1,-9.9292725E-2,9.7532344E-1,5.024691E-2,1.0121796E0],"categories":[],"categories_nodes":[],"categories_segments":[],"categories_sizes":[],"default_left":[1,1,1,1,1,1,1,1,0,0,0,1,1,1,1,0,0,1,1,1,1,1,1,1,1,0,1,1,1,1,1,0,0,1,1,1,1,1,1,1,1,0,0,0,0,0,0,0,0,0,0,0,0,0,0,0,0,0,0,0,0,0,0,0,0,0,0],"id":8,"left_children":[1,3,5,7,9,11,13,15,-1,-1,-1,17,19,21,23,-1,-1,25,27,29,31,33,35,37,39,-1,41,43,45,47,49,-1,-1,51,53,55,57,59,61,63,65,-1,-1,-1,-1,-1,-1,-1,-1,-1,-1,-1,-1,-1,-1,-1,-1,-1,-1,-1,-1,-1,-1,-1,-1,-1,-1],"loss_changes":[1.1355854E1,5.069769E0,1.0060168E1,2.8697014E-2,9.944161E-1,1.4408068E1,1.4904076E1,9.6618116E-2,0E0,0E0,0E0,2.100783E1,2.0928013E1,8.130011E0,1.56323395E1,0E0,0E0,3.1221008E0,7.2234116E0,6.2986984E0,2.6762753E0,1.8474407E0,5.9386725E0,1.5794598E1,8.493456E0,0E0,3.7247715E0,4.308155E0,4.385659E0,4.104107E0,5.9601274E0,0E0,0E0,6.9592285E-1,1.0852035E0,3.7831E0,6.2528844E0,1.493145E1,5.0911818E0,9.504254E0,2.3694363E0,0E0,0E0,0E0,0E0,0E0,0E0,0E0,0E0,0E0,0E0,0E0,0E0,0E0,0E0,0E0,0E0,0E0,0E0,0E0,0E0,0E0,0E0,0E0,0E0,0E0,0E0],"parents":[2147483647,0,0,1,1,2,2,3,3,4,4,5,5,6,6,7,7,11,11,12,12,13,13,14,14,17,17,18,18,19,19,20,20,21,21,22,22,23,23,24,24,26,26,27,27,28,28,29,29,30,30,33,33,34,34,35,35,36,36,37,37,38,38,39,39,40,40],"right_children":[2,4,6,8,10,12,14,16,-1,-1,-1,18,20,22,24,-1,-1,26,28,30,32,34,36,38,40,-1,42,44,46,48,50,-1,-1,52,54,56,58,60,62,64,66,-1,-1,-1,-1,-1,-1,-1,-1,-1,-1,-1,-1,-1,-1,-1,-1,-1,-1,-1,-1,-1,-1,-1,-1,-1,-1],"split_conditions":[-1.5349693E0,2.4304595E0,-1.6793952E0,-2.1871927E0,-1.9455416E0,1.1881046E0,-1.08214E0,8.475432E-1,3.452487E-1,-2.2713967E-1,6.7715585E-2,-1.879004E0,2.6865816E0,-1.0344965E0,6.417458E-1,1.8545896E-1,3.138839E-2,-2.5895074E-1,1.9629447E0,8.3742404E-1,-4.6740646E0,3.2255036E-1,1.4035158E0,2.5990565E0,8.867222E-1,-3.756816E-2,-2.735383E0,-1.1082962E-1,4.13458E-1,1.755703E0,-5.163447E-1,-6.9430545E-2,3.573103E-1,1.5373513E0,1.0378792E0,-2.947203E-1,1.6139555E0,-1.4688724E0,8.847004E-1,1.3540635E0,-2.6586676E0,-1.0377374E-1,3.9351562E-1,1.2603807E-1,-6.088928E-2,-3.3839855E-1,-4.5505078E-3,-3.1673363E-1,-5.1310945E-2,-2.0837253E-1,2.774283E-1,-3.128627E-1,-1.1821123E-1,1.6368838E-1,-1.4518498E-1,-5.480271E-2,1.9135466E-1,-1.6960862E-1,2.774813E-1,2.2161326E-1,7.6710014E-3,-2.3066206E-1,1.1804288E-1,-2.9787818E-2,2.9259706E-1,1.5074073E-2,3.036539E-1],"split_indices":[3,5,2,0,0,5,4,5,0,0,0,1,0,6,0,0,0,3,4,1,2,1,3,6,4,0,6,0,3,0,0,0,0,5,3,0,1,5,1,5,5,0,0,0,0,0,0,0,0,0,0,0,0,0,0,0,0,0,0,0,0,0,0,0,0,0,0],"split_type":[0,0,0,0,0,0,0,0,0,0,0,0,0,0,0,0,0,0,0,0,0,0,0,0,0,0,0,0,0,0,0,0,0,0,0,0,0,0,0,0,0,0,0,0,0,0,0,0,0,0,0,0,0,0,0,0,0,0,0,0,0,0,0,0,0,0,0],"sum_hessian":[5.668417E2,1.5208197E1,5.516335E2,1.2687762E1,2.5204341E0,1.4816185E2,4.0347162E2,2.2768993E0,1.0410863E1,1.3015987E0,1.2188355E0,8.641157E1,6.1750282E1,7.012852E1,3.333431E2,1.2596582E0,1.0172411E0,1.6169256E1,7.024231E1,5.476129E1,6.988992E0,2.1332146E1,4.879637E1,2.6309372E2,7.024937E1,1.9108278E0,1.4258428E1,5.4491947E1,1.5750365E1,4.7606075E1,7.1552143E0,1.2866665E0,5.702326E0,1.9233524E1,2.0986202E0,2.1065262E1,2.773111E1,2.3229787E2,3.0795866E1,3.7214546E1,3.303482E1,1.0927706E0,1.3165657E1,1.4177627E1,4.0314323E1,1.0616067E1,5.134298E0,4.1125824E1,6.480252E0,3.9460804E0,3.2091339E0,1.55202875E1,3.713237E0,1.0137047E0,1.0849156E0,9.5644455E0,1.1500815E1,2.5485998E1,2.245111E0,3.3462257E1,1.988356E2,2.7070635E1,3.7252312E0,2.634826E1,1.0866285E1,2.9074001E0,3.012742E1],"tree_param":{"num_deleted":"0","num_feature":"7","num_nodes":"67","size_leaf_vector":"0"}},{"base_weights":[7.7489144E-3,-2.0730425E-2,5.391568E-1,-6.2480632E-2,3.8053763E-1,6.369789E-1,-2.2584859E-1,-9.807211E-2,4.3723586E-1,2.6645465E-3,8.070525E-1,4.2308006E-1,9.716805E-1,4.2034376E-1,-7.368966E-1,-1.2226336E-1,7.6346034E-1,-2.3360275E-1,7.1221024E-1,-3.3071497E-1,6.899453E-1,2.1346202E-1,1.051077E0,6.233177E-1,-1.7255184E-1,-3.5846907E-1,-3.7859626E-2,-4.0869704E-1,1.04228E0,5.098443E-1,-6.3213456E-1,1.0270197E0,3.4747994E-1,7.905847E-2,-7.2653896E-1,8.0103296E-1,-6.857757E-2,4.6492866E-1,-7.150918E-1,1.1123835E0,2.9567763E-1,2.708689E-3,7.521187E-1,-5.181513E-1,3.4832856E-1,7.281727E-1,-4.2210284E-1,-2.7111447E-1,8.908683E-2,-6.963906E-1,7.9589605E-2,3.235919E-1,1.0972822E0,-6.348072E-2,9.9558383E-1,2.3513587E-1,-8.729811E-1,-4.0097222E-1,7.353643E-1,-8.7628543E-1,4.3252066E-1,-9.0308917E-1,-1.4439322E-1,9.380361E-1,4.0487495E-1,8.5417587E-1,-2.5622985E-1,3.001091E-1,-2.8916708E-1,3.1330088E-1,9.5525265E-1,2.4607348E-1,-9.853459E-1],"categories":[],"categories_nodes":[],"categories_segments":[],"categories_sizes":[],"default_left":[1,1,1,1,1,1,1,1,1,1,1,1,0,0,0,1,1,1,1,1,1,1,1,1,1,1,1,1,1,1,1,0,1,1,1,1,0,1,0,0,0,1,1,1,0,0,0,0,0,0,0,0,0,0,0,0,0,0,0,0,0,0,0,0,0,0,0,0,0,0,0,0,0],"id":9,"left_children":[1,3,5,7,9,11,13,15,17,19,21,23,-1,-1,-1,25,27,29,31,33,35,37,39,41,43,45,47,49,51,53,55,-1,57,59,61,63,-1,65,-1,-1,-1,67,69,71,-1,-1,-1,-1,-1,-1,-1,-1,-1,-1,-1,-1,-1,-1,-1,-1,-1,-1,-1,-1,-1,-1,-1,-1,-1,-1,-1,-1,-1],"loss_changes":[8.128036E0,8.567981E0,2.1881871E0,8.274169E0,7.7669015E0,1.3416662E0,1.5763322E0,9.114626E0,5.8762784E0,6.3144436E0,3.0552673E0,2.1002886E0,0E0,0E0,0E0,8.397513E0,4.3348284E0,3.211757E0,2.1923628E0,3.068277E0,8.133249E-1,2.1656885E0,4.0236092E-1,1.0148306E0,1.078203E0,7.979165E0,9.261021E0,4.7918946E-1,3.7994385E-2,1.1651487E0,1.6246707E0,0E0,3.719618E0,3.763391E0,8.5012245E-1,5.0583363E-2,0E0,2.1231833E0,0E0,0E0,0E0,3.6368647E-1,6.3945436E-1,1.456351E0,0E0,0E0,0E0,0E0,0E0,0E0,0E0,0E0,0E0,0E0,0E0,0E0,0E0,0E0,0E0,0E0,0E0,0E0,0E0,0E0,0E0,0E0,0E0,0E0,0E0,0E0,0E0,0E0,0E0],"parents":[2147483647,0,0,1,1,2,2,3,3,4,4,5,5,6,6,7,7,8,8,9,9,10,10,11,11,15,15,16,16,17,17,18,18,19,19,20,20,21,21,22,22,23,23,24,24,25,25,26,26,27,27,28,28,29,29,30,30,32,32,33,33,34,34,35,35,37,37,41,41,42,42,43,43],"right_children":[2,4,6,8,10,12,14,16,18,20,22,24,-1,-1,-1,26,28,30,32,34,36,38,40,42,44,46,48,50,52,54,56,-1,58,60,62,64,-1,66,-1,-1,-1,68,70,72,-1,-1,-1,-1,-1,-1,-1,-1,-1,-1,-1,-1,-1,-1,-1,-1,-1,-1,-1,-1,-1,-1,-1,-1,-1,-1,-1,-1,-1],"split_conditions":[1.6042325E0,1.9710178E0,1.8188885E0,3.0183516E0,3.719988E-1,2.4029982E0,-7.634561E-1,3.0904946E0,-1.8487307E0,1.9987934E0,-2.4964354E0,2.059839E0,2.9150417E-1,1.2610313E-1,-2.2106898E-1,-1.6843898E0,-4.2555623E0,-2.1192255E0,-8.294811E-1,1.2582772E0,1.4354602E-1,-2.6936424E0,2.0460172E0,-1.7391878E0,1.4068651E0,-3.11231E0,-1.1286731E0,-5.101682E0,-7.459527E-1,-2.8443813E0,3.1985173E0,3.0810595E-1,-1.5200211E-1,-2.8490686E-1,-1.7859893E-1,-1.1712906E0,-2.0573273E-2,7.123751E-1,-2.1452756E-1,3.3371505E-1,8.870329E-2,1.2496779E0,-5.989865E-1,-1.113352E0,1.0449857E-1,2.1845183E-1,-1.2663086E-1,-8.1334345E-2,2.672605E-2,-2.089172E-1,2.3876883E-2,9.707757E-2,3.2918465E-1,-1.9044217E-2,2.9867515E-1,7.054076E-2,-2.6189435E-1,-1.2029167E-1,2.206093E-1,-2.6288563E-1,1.297562E-1,-2.7092677E-1,-4.3317966E-2,2.8141084E-1,1.2146249E-1,2.5625277E-1,-7.686896E-2,9.003273E-2,-8.675013E-2,9.399027E-2,2.865758E-1,7.382205E-2,-2.9560378E-1],"split_indices":[1,2,5,3,5,1,4,0,4,4,0,1,0,0,0,2,2,2,1,3,1,0,4,2,4,1,0,2,5,4,3,0,1,4,5,1,0,3,0,0,0,3,4,4,0,0,0,0,0,0,0,0,0,0,0,0,0,0,0,0,0,0,0,0,0,0,0,0,0,0,0,0,0],"split_type":[0,0,0,0,0,0,0,0,0,0,0,0,0,0,0,0,0,0,0,0,0,0,0,0,0,0,0,0,0,0,0,0,0,0,0,0,0,0,0,0,0,0,0,0,0,0,0,0,0,0,0,0,0,0,0,0,0,0,0,0,0,0,0,0,0,0,0,0,0,0,0,0,0],"sum_hessian":[5.353276E2,5.090096E2,2.6317978E1,4.6180508E2,4.7204533E1,2.3482584E1,2.8353932E0,4.3185095E2,2.9954123E1,2.5563055E1,2.1641478E1,1.5708042E1,7.7745423E0,1.3305156E0,1.5048776E0,4.2089072E2,1.0960241E1,8.752246E0,2.1201878E1,1.7562712E1,8.000344E0,6.851045E0,1.4790433E1,1.1721173E1,3.9868686E0,1.0994898E2,3.1094174E2,2.0166087E0,8.943633E0,2.9569163E0,5.795329E0,1.0405097E1,1.079678E1,9.022507E0,8.540205E0,6.929463E0,1.0708815E0,5.783959E0,1.0670867E0,1.3243079E1,1.547353E0,2.1900012E0,9.531172E0,2.3998375E0,1.5870311E0,5.504706E0,1.04444275E2,1.0918557E2,2.0175618E2,1.0007718E0,1.015837E0,1.125145E0,7.8184876E0,1.7548977E0,1.2020186E0,1.2647539E0,4.5305753E0,3.6739242E0,7.1228557E0,2.0371938E0,6.985313E0,6.129861E0,2.4103436E0,4.132492E0,2.7969706E0,3.6366289E0,2.1473298E0,1.0707628E0,1.1192385E0,3.8204412E0,5.710731E0,1.090053E0,1.3097847E0],"tree_param":{"num_deleted":"0","num_feature":"7","num_nodes":"73","size_leaf_vector":"0"}},{"base_weights":[1.0836113E-2,5.844958E-1,-1.4921073E-2,8.9558774E-1,-1.15572765E-1,-7.9682074E-2,1.4648539E-1,2.1947236E-1,9.9496764E-1,-8.14097E-1,4.222619E-1,2.1751703E-1,-1.7722565E-1,-8.790462E-2,4.3045613E-1,-4.674566E-1,7.474178E-1,2.3725198E-1,1.0423849E0,-2.3326434E-1,7.181334E-1,3.8344762E-1,-4.2252195E-1,-3.286419E-1,2.6968113E-1,-4.947322E-1,2.5263956E-1,-6.4680034E-1,6.0905814E-1,1.8040845E-1,8.5602444E-1,5.275378E-1,-3.799369E-1,-6.6027564E-1,5.1442E-1,-1.7546213E-1,-7.5774336E-1,-1.1383372E-1,4.62629E-1,3.2830417E-2,-8.80046E-1,6.328083E-1,-2.1406392E-2,1.633121E-1,-1.0460881E0,6.7835987E-1,-7.525877E-1,8.113412E-1,3.3658922E-1,-1.1631414E0,2.5463587E-1,4.411096E-1,-8.745895E-1,-9.462212E-2,7.5013185E-1,-3.2384312E-1,3.0967462E-1,5.5120543E-2,-8.4560126E-1,5.158207E-2,-1.1191238E0,-7.9788774E-1,5.185463E-1,1.0130274E0,-2.3724009E-1,2.2083785E-1,-1.0276082E0,1.6954628E-1,9.499194E-1,5.186326E-1,-5.802355E-1,-3.0116034E-1,6.85246E-1,-2.480739E-1,-1.1550381E0,3.4159455E-1,1.0079892E0,1.963336E-1,-1.3374343E0],"categories":[],"categories_nodes":[],"categories_segments":[],"categories_sizes":[],"default_left":[1,1,1,1,1,1,1,1,1,0,1,1,1,1,1,0,0,0,0,0,1,1,1,1,1,1,1,1,1,0,0,1,1,1,1,1,1,1,1,1,1,1,1,1,1,1,1,0,0,0,0,0,0,0,0,0,0,0,0,0,0,0,0,0,0,0,0,0,0,0,0,0,0,0,0,0,0,0,0],"id":10,"left_children":[1,3,5,7,9,11,13,15,17,-1,19,21,23,25,27,-1,-1,-1,-1,-1,29,31,33,35,37,39,41,43,45,-1,-1,47,49,51,53,55,57,59,61,63,65,67,69,71,73,75,77,-1,-1,-1,-1,-1,-1,-1,-1,-1,-1,-1,-1,-1,-1,-1,-1,-1,-1,-1,-1,-1,-1,-1,-1,-1,-1,-1,-1,-1,-1,-1,-1],"loss_changes":[7.6653175E0,4.958258E0,5.2056007E0,8.2630825E-1,3.2530513E0,1.0337452E1,9.531456E0,1.5372579E0,2.2954369E-1,0E0,1.1437931E0,9.532836E0,1.822546E1,1.1065448E1,1.2835413E1,0E0,0E0,0E0,0E0,0E0,1.20906115E-1,7.965541E0,4.492261E0,1.305542E1,5.1124673E0,7.4119787E0,4.5609355E0,3.302413E0,5.793358E0,0E0,0E0,2.9677963E0,6.156008E0,3.9987535E0,6.933111E-1,1.08378315E1,3.7947063E0,3.997004E0,3.6340551E0,4.553817E0,3.6425724E0,2.5297365E0,8.247445E0,1.1909163E0,2.8903103E-1,5.6276646E0,2.03038E0,0E0,0E0,0E0,0E0,0E0,0E0,0E0,0E0,0E0,0E0,0E0,0E0,0E0,0E0,0E0,0E0,0E0,0E0,0E0,0E0,0E0,0E0,0E0,0E0,0E0,0E0,0E0,0E0,0E0,0E0,0E0,0E0],"parents":[2147483647,0,0,1,1,2,2,3,3,4,4,5,5,6,6,7,7,8,8,10,10,11,11,12,12,13,13,14,14,20,20,21,21,22,22,23,23,24,24,25,25,26,26,27,27,28,28,31,31,32,32,33,33,34,34,35,35,36,36,37,37,38,38,39,39,40,40,41,41,42,42,43,43,44,44,45,45,46,46],"right_children":[2,4,6,8,10,12,14,16,18,-1,20,22,24,26,28,-1,-1,-1,-1,-1,30,32,34,36,38,40,42,44,46,-1,-1,48,50,52,54,56,58,60,62,64,66,68,70,72,74,76,78,-1,-1,-1,-1,-1,-1,-1,-1,-1,-1,-1,-1,-1,-1,-1,-1,-1,-1,-1,-1,-1,-1,-1,-1,-1,-1,-1,-1,-1,-1,-1,-1],"split_conditions":[-1.2084577E0,1.503319E0,4.6544856E-1,-1.8245859E0,-2.1568575E0,-7.4083626E-1,3.90599E-1,2.4769168E-1,-1.0223944E0,-2.4422911E-1,-1.5310446E0,2.303563E0,1.239696E0,9.012257E-1,-3.1171E0,-1.4023699E-1,2.2422536E-1,7.11756E-2,3.1271547E-1,-6.99793E-2,-8.575175E-1,1.365722E0,2.0057511E0,8.081926E-1,-4.5939735E-1,-1.6496389E0,-1.65795E-1,-1.2834768E-1,2.5562632E-1,5.4122537E-2,2.5680736E-1,-3.4937477E-1,-1.7263392E0,-1.826637E0,-6.1166596E-1,2.9524684E-1,-1.9715399E-1,2.0786283E0,-4.8452225E0,5.043977E-1,-6.6248715E-2,1.9487659E0,-1.8269527E0,2.2278938E0,6.267514E-1,-1.6270766E0,1.0070324E0,2.4340238E-1,1.0097677E-1,-3.4894243E-1,7.6390766E-2,1.3233289E-1,-2.6237687E-1,-2.8386638E-2,2.2503956E-1,-9.715294E-2,9.290239E-2,1.6536163E-2,-2.5368038E-1,1.5474621E-2,-3.3573717E-1,-2.3936634E-1,1.5556389E-1,3.0390823E-1,-7.117203E-2,6.625136E-2,-3.0828246E-1,5.0863884E-2,2.8497583E-1,1.5558979E-1,-1.7407066E-1,-9.03481E-2,2.0557381E-1,-7.442217E-2,-3.4651145E-1,1.0247837E-1,3.0239677E-1,5.8900084E-2,-4.012303E-1],"split_indices":[3,5,2,2,0,5,5,5,4,0,1,6,0,4,0,0,0,0,0,0,2,0,3,6,6,5,6,3,1,0,0,0,5,1,4,1,3,4,2,3,3,4,5,2,5,1,2,0,0,0,0,0,0,0,0,0,0,0,0,0,0,0,0,0,0,0,0,0,0,0,0,0,0,0,0,0,0,0,0],"split_type":[0,0,0,0,0,0,0,0,0,0,0,0,0,0,0,0,0,0,0,0,0,0,0,0,0,0,0,0,0,0,0,0,0,0,0,0,0,0,0,0,0,0,0,0,0,0,0,0,0,0,0,0,0,0,0,0,0,0,0,0,0,0,0,0,0,0,0,0,0,0,0,0,0,0,0,0,0,0,0],"sum_hessian":[5.1718286E2,2.129142E1,4.9589142E2,1.4547576E1,6.7438445E0,3.5425876E2,1.4163266E2,2.2754347E0,1.22721405E1,2.710225E0,4.0336194E0,8.7235794E1,2.6702295E2,7.7968094E1,6.366457E1,1.0386211E0,1.2368135E0,1.0763197E0,1.1195821E1,1.3202052E0,2.7134142E0,6.9594315E1,1.764148E1,1.9964572E2,6.7377235E1,3.5320297E1,4.2647797E1,8.681251E0,5.498332E1,1.0249238E0,1.6884904E0,5.8803917E1,1.0790398E1,1.4306436E1,3.335043E0,1.4816351E2,5.148221E1,2.2689081E1,4.4688156E1,1.5294382E1,2.0025915E1,1.7316477E1,2.5331322E1,3.0612633E0,5.619987E0,5.2797947E1,2.185372E0,2.234458E1,3.6459335E1,4.456782E0,6.333616E0,2.1579945E0,1.2148441E1,1.0975964E0,2.2374465E0,1.13715614E2,3.44479E1,5.0580063E0,4.6424202E1,2.0297853E1,2.3912272E0,1.3345666E0,4.3353592E1,2.709504E0,1.2584878E1,2.3083038E0,1.7717611E1,7.6603155E0,9.656162E0,1.29188175E1,1.2412504E1,1.8436121E0,1.2176511E0,1.0687541E0,4.551233E0,2.7123531E1,2.5674416E1,1.0866184E0,1.0987537E0],"tree_param":{"num_deleted":"0","num_feature":"7","num_nodes":"79","size_leaf_vector":"0"}},{"base_weights":[9.068545E-3,6.9253623E-1,-7.129269E-3,9.1945225E-1,-2.6525924E-1,-4.0616132E-2,2.6994884E-1,2.6855564E-1,9.67085E-1,-7.045116E-2,3.6954528E-1,6.4416766E-1,1.4330861E-1,-1.16077505E-1,2.663387E-1,7.852879E-1,4.8082113E-2,-1.8993936E-1,7.787622E-1,-1.1658889E-2,4.441951E-1,-1.3615236E-1,4.9098426E-1,-1.9038546E-1,9.2416644E-1,-7.482881E-2,9.0905005E-1,5.0389034E-1,-4.2512748E-1,-9.203435E-2,9.1968143E-1,3.5964376E-1,-2.0797001E-1,-2.9679647E-1,6.11787E-1,-2.3165539E-1,2.100657E-2,-3.2028368E-1,7.626715E-1,4.371907E-1,-4.9472362E-1,1.0597448E0,-3.8085938E-1,4.147801E-2,1.0244473E0,6.8016213E-1,-4.3761262E-1,5.9006935E-1,-6.497436E-1,1.0155358E0,1.2242019E-1,6.4221543E-1,-3.410243E-1,-7.496013E-1,2.688011E-2,-6.882328E-1,2.031242E-1,8.4871155E-1,2.7516776E-1],"categories":[],"categories_nodes":[],"categories_segments":[],"categories_sizes":[],"default_left":[1,1,1,1,0,1,1,0,0,1,1,1,1,1,1,1,1,0,1,1,1,1,1,1,1,0,1,1,1,0,1,1,1,1,1,0,0,0,0,0,0,0,0,0,0,0,0,0,0,0,0,0,0,0,0,0,0,0,0],"id":11,"left_children":[1,3,5,7,-1,9,11,-1,-1,13,15,17,19,21,23,25,27,-1,29,31,33,35,37,39,41,-1,43,45,47,-1,49,51,53,55,57,-1,-1,-1,-1,-1,-1,-1,-1,-1,-1,-1,-1,-1,-1,-1,-1,-1,-1,-1,-1,-1,-1,-1,-1],"loss_changes":[5.4358206E0,2.7144198E0,4.4664636E0,3.214979E-2,0E0,5.2793207E0,2.3676822E0,0E0,0E0,6.1931825E0,3.8739386E0,1.5892706E0,1.8735316E0,4.3793535E0,1.464226E1,1.4196978E0,4.0042315E0,0E0,1.4652658E0,2.0736372E0,1.8763494E0,5.157895E0,2.788833E0,5.8024907E0,3.924879E0,0E0,1.0764542E0,1.8589778E0,2.4729433E0,0E0,6.2267685E-1,2.1693058E0,2.382533E0,7.641624E-1,6.801653E-1,0E0,0E0,0E0,0E0,0E0,0E0,0E0,0E0,0E0,0E0,0E0,0E0,0E0,0E0,0E0,0E0,0E0,0E0,0E0,0E0,0E0,0E0,0E0,0E0],"parents":[2147483647,0,0,1,1,2,2,3,3,5,5,6,6,9,9,10,10,11,11,12,12,13,13,14,14,15,15,16,16,18,18,19,19,20,20,21,21,22,22,23,23,24,24,26,26,27,27,28,28,30,30,31,31,32,32,33,33,34,34],"right_children":[2,4,6,8,-1,10,12,-1,-1,14,16,18,20,22,24,26,28,-1,30,32,34,36,38,40,42,-1,44,46,48,-1,50,52,54,56,58,-1,-1,-1,-1,-1,-1,-1,-1,-1,-1,-1,-1,-1,-1,-1,-1,-1,-1,-1,-1,-1,-1,-1,-1],"split_conditions":[-1.5349693E0,2.4304595E0,9.556382E-1,-3.1537457E0,-7.9577774E-2,2.2481623E0,-7.937101E-3,8.05667E-2,2.9012552E-1,2.534885E0,-1.8388498E0,-3.4380357E0,1.7291281E0,2.888627E0,-6.186485E-2,-3.194703E0,2.7175977E0,-5.6981813E-2,-2.7503777E0,4.655902E-2,-2.2944217E0,-5.398247E-2,-4.2555623E0,-2.3658085E0,5.0517654E-1,-2.2448644E-2,-2.5540036E-1,2.340652E0,-1.6737767E0,-2.7610306E-2,1.7676218E0,2.0239182E0,-1.9839911E0,5.436552E-1,1.3942254E0,-6.949662E-2,6.301971E-3,-9.608511E-2,2.2880144E-1,1.3115722E-1,-1.4841709E-1,3.1792346E-1,-1.1425782E-1,1.2443404E-2,3.073342E-1,2.0404865E-1,-1.3128379E-1,1.7702082E-1,-1.9492309E-1,3.0466077E-1,3.6726058E-2,1.9266464E-1,-1.023073E-1,-2.248804E-1,8.064033E-3,-2.0646985E-1,6.093726E-2,2.546135E-1,8.255033E-2],"split_indices":[3,5,1,0,0,2,3,0,0,3,1,0,1,0,4,0,2,0,2,6,0,2,2,2,1,0,5,3,6,0,5,3,2,4,6,0,0,0,0,0,0,0,0,0,0,0,0,0,0,0,0,0,0,0,0,0,0,0,0],"split_type":[0,0,0,0,0,0,0,0,0,0,0,0,0,0,0,0,0,0,0,0,0,0,0,0,0,0,0,0,0,0,0,0,0,0,0,0,0,0,0,0,0,0,0,0,0,0,0,0,0,0,0,0,0,0,0,0,0,0,0],"sum_hessian":[4.8956445E2,1.0367148E1,4.791973E2,8.413821E0,1.9533271E0,4.2828894E2,5.0908356E1,1.0263875E0,7.3874335E0,4.0001984E2,2.8269102E1,1.1838698E1,3.9069656E1,3.5287036E2,4.7149487E1,1.1697752E1,1.657135E1,1.5877749E0,1.0250923E1,2.6422405E1,1.264725E1,3.4232574E2,1.0544614E1,2.8247839E1,1.8901648E1,1.5211957E0,1.0176557E1,8.407848E0,8.163502E0,1.4761424E0,8.774781E0,8.850524E0,1.7571882E1,2.1906326E0,1.0456618E1,2.126361E2,1.2968965E2,2.6005144E0,7.9440994E0,9.082426E0,1.9165413E1,1.7293036E1,1.6086127E0,1.3542869E0,8.822269E0,7.315745E0,1.0921035E0,1.1842117E0,6.97929E0,7.5886226E0,1.1861581E0,6.366435E0,2.4840887E0,4.6517625E0,1.2920119E1,1.0173594E0,1.1732732E0,5.244249E0,5.212369E0],"tree_param":{"num_deleted":"0","num_feature":"7","num_nodes":"59","size_leaf_vector":"0"}},{"base_weights":[1.1994976E-2,-9.777877E-1,2.1005174E-2,-7.957501E-3,3.584398E-1,1.8280957E-2,-6.029721E-1,-8.3606166E-1,4.53108E-1,3.2141978E-1,-3.930087E-2,-7.944801E-1,7.0108604E-1,-1.17113896E-1,6.1344177E-1,4.243953E-1,-6.917511E-1,-7.455321E-2,3.8638863E-1,-1.019994E0,-2.4460618E-1,-5.816956E-1,5.6331855E-1,-4.6096778E-1,7.1521074E-1,-4.083659E-2,6.036145E-1,-1.0414838E0,2.2661719E-1,2.3784779E-1,-1.2716076E-1,6.564972E-1,4.1621912E-2,-1.1268294E0,-1.4811392E-1,3.2559472E-1,-8.025702E-1,1.6547862E-1,-9.7847575E-1,-8.7521285E-2,8.394722E-1,3.3930457E-1,1.0204362E0],"categories":[],"categories_nodes":[],"categories_segments":[],"categories_sizes":[],"default_left":[1,0,1,1,1,1,1,0,1,1,1,1,0,1,1,1,1,1,1,1,1,1,1,0,1,0,0,0,0,0,0,0,0,0,0,0,0,0,0,0,0,0,0],"id":12,"left_children":[1,-1,3,5,7,9,11,-1,13,15,17,19,-1,21,23,25,27,29,31,33,35,37,39,-1,41,-1,-1,-1,-1,-1,-1,-1,-1,-1,-1,-1,-1,-1,-1,-1,-1,-1,-1],"loss_changes":[4.270078E0,0E0,4.6272993E0,6.829834E0,4.610975E0,7.3313546E0,5.1711154E0,0E0,3.3015442E0,7.2879024E0,5.3297915E0,1.8063431E0,0E0,3.043946E0,3.362093E0,5.150256E0,2.3446722E0,5.405481E0,2.5035672E0,8.988552E-1,2.213886E0,1.8215791E0,7.913959E-1,0E0,2.6054192E0,0E0,0E0,0E0,0E0,0E0,0E0,0E0,0E0,0E0,0E0,0E0,0E0,0E0,0E0,0E0,0E0,0E0,0E0],"parents":[2147483647,0,0,2,2,3,3,4,4,5,5,6,6,8,8,9,9,10,10,11,11,13,13,14,14,15,15,16,16,17,17,18,18,19,19,20,20,21,21,22,22,24,24],"right_children":[2,-1,4,6,8,10,12,-1,14,16,18,20,-1,22,24,26,28,30,32,34,36,38,40,-1,42,-1,-1,-1,-1,-1,-1,-1,-1,-1,-1,-1,-1,-1,-1,-1,-1,-1,-1],"split_conditions":[-5.131564E0,-2.933363E-1,2.1241798E0,3.4253192E0,-2.288447E0,-1.3759077E0,1.3248355E0,-2.5081852E-1,-3.5543566E0,1.3485558E0,1.9710178E0,2.485191E0,2.1032582E-1,2.863827E0,-2.2886672E0,-7.320762E-1,-1.8427985E0,-2.952845E-1,-1.535337E0,2.3695188E0,4.1903043E0,4.5532882E-1,-1.6376595E0,-1.3829035E-1,2.9214144E-1,-1.2250978E-2,1.8108436E-1,-3.1244513E-1,6.798516E-2,7.135434E-2,-3.8148228E-2,1.9694917E-1,1.2486574E-2,-3.3804882E-1,-4.443418E-2,9.767842E-2,-2.4077107E-1,4.9643587E-2,-2.9354274E-1,-2.6256386E-2,2.5184166E-1,1.01791374E-1,3.0613086E-1],"split_indices":[2,0,0,6,5,5,0,0,2,0,2,4,0,0,4,4,5,3,1,2,6,4,1,0,5,0,0,0,0,0,0,0,0,0,0,0,0,0,0,0,0,0,0],"split_type":[0,0,0,0,0,0,0,0,0,0,0,0,0,0,0,0,0,0,0,0,0,0,0,0,0,0,0,0,0,0,0,0,0,0,0,0,0,0,0,0,0,0,0],"sum_hessian":[4.755052E2,3.3196259E0,4.7218558E2,4.3575986E2,3.6425705E1,4.18284E2,1.7475863E1,2.0997722E0,3.432593E1,6.6039246E1,3.5224475E2,1.5578795E1,1.8970668E0,7.592612E0,2.673332E1,6.047398E1,5.565265E0,3.2606723E2,2.617752E1,1.0441553E1,5.1372423E0,4.598193E0,2.9944186E0,2.0077083E0,2.472561E1,1.7032295E1,4.3441685E1,3.933321E0,1.6319444E0,4.6487564E1,2.7957968E2,1.4171016E1,1.2006504E1,9.041273E0,1.4002807E0,2.746731E0,2.390511E0,1.7970762E0,2.8011167E0,1.0955331E0,1.8988856E0,1.2026186E1,1.2699425E1],"tree_param":{"num_deleted":"0","num_feature":"7","num_nodes":"43","size_leaf_vector":"0"}},{"base_weights":[8.729345E-3,-3.5131028E-1,3.183352E-2,5.1005155E-1,-7.8496057E-1,5.268203E-1,1.5884105E-2,8.314472E-1,-5.690418E-1,-2.4209455E-1,-1.0722541E0,6.8548733E-1,-2.0553854E-1,-6.261213E-2,1.20638944E-1,9.243832E-1,9.158971E-2,3.2474145E-1,-8.12142E-1,1.8324028E-1,8.563648E-1,-4.519891E-1,1.1925529E-1,-4.1898903E-1,-6.816837E-3,-1.5287971E-1,6.094348E-1,9.933333E-2,1.0520666E0,7.120768E-1,-1.5781376E-1,6.299048E-1,-3.0886528E-1,5.1267486E-2,9.6092945E-1,-6.2477276E-2,-9.437601E-1,-1.13763124E-1,4.117736E-1,1.6683377E-2,-4.0680066E-1,4.70043E-1,8.3670294E-1,-7.843641E-1,9.693524E-2,-1.0909207E0,-1.4714088E-1,9.267662E-2,-3.7717915E-1,-2.3630759E-1,5.955464E-1,3.2312396E-1,-3.287735E-1,-5.745395E-1,3.629317E-1,-1.2716037E-1,5.7896805E-1,-1.21136E-1,9.8405755E-1],"categories":[],"categories_nodes":[],"categories_segments":[],"categories_sizes":[],"default_left":[1,1,1,1,1,1,1,1,0,1,0,1,1,1,1,1,0,1,0,1,1,0,0,1,1,1,1,0,0,0,0,0,0,0,0,1,1,1,1,1,1,1,1,0,0,0,0,0,0,0,0,0,0,0,0,0,0,0,0],"id":13,"left_children":[1,3,5,7,9,11,13,15,-1,17,-1,19,21,23,25,27,-1,29,-1,31,33,-1,-1,35,37,39,41,-1,-1,-1,-1,-1,-1,-1,-1,43,45,47,49,51,53,55,57,-1,-1,-1,-1,-1,-1,-1,-1,-1,-1,-1,-1,-1,-1,-1,-1],"loss_changes":[3.8686748E0,1.0876638E1,3.439129E0,3.9405608E0,2.7112942E0,1.721278E0,3.4947195E0,4.7296286E-1,0E0,2.8111885E0,0E0,8.2225037E-1,3.093421E-1,4.830649E0,2.4425438E1,6.428995E-1,0E0,9.8476446E-1,0E0,1.1108258E0,6.4447594E-1,0E0,0E0,6.094213E0,9.501297E0,5.06569E0,1.6817627E0,0E0,0E0,0E0,0E0,0E0,0E0,0E0,0E0,2.452998E0,1.3909245E0,9.225079E0,5.2851543E0,7.6660247E0,6.287876E0,2.863121E0,3.452921E0,0E0,0E0,0E0,0E0,0E0,0E0,0E0,0E0,0E0,0E0,0E0,0E0,0E0,0E0,0E0,0E0],"parents":[2147483647,0,0,1,1,2,2,3,3,4,4,5,5,6,6,7,7,9,9,11,11,12,12,13,13,14,14,15,15,17,17,19,19,20,20,23,23,24,24,25,25,26,26,35,35,36,36,37,37,38,38,39,39,40,40,41,41,42,42],"right_children":[2,4,6,8,10,12,14,16,-1,18,-1,20,22,24,26,28,-1,30,-1,32,34,-1,-1,36,38,40,42,-1,-1,-1,-1,-1,-1,-1,-1,44,46,48,50,52,54,56,58,-1,-1,-1,-1,-1,-1,-1,-1,-1,-1,-1,-1,-1,-1,-1,-1],"split_conditions":[-3.1181936E0,1.3418332E-2,-1.2069888E0,1.0192282E0,-4.0709156E-1,2.4304595E0,1.319221E0,2.1274989E0,-1.7071255E-1,1.3211634E0,-3.2167622E-1,-1.497617E0,-6.690104E-1,-2.5896463E0,5.6899846E-1,-2.777761E0,2.7476914E-2,9.09209E-2,-2.4364261E-1,2.2030473E0,-3.0825489E0,-1.3559674E-1,3.577659E-2,1.4060639E0,9.1366124E-1,-5.699407E-1,1.9197516E0,2.98E-2,3.1561998E-1,2.1362305E-1,-4.734413E-2,1.8897144E-1,-9.2659585E-2,1.5380247E-2,2.8827885E-1,-1.3010738E0,2.888627E0,1.6951065E-1,-4.6889472E-1,1.4026406E-1,1.4452658E0,1.4668494E0,-1.9909093E0,-2.3530924E-1,2.9080573E-2,-3.2727623E-1,-4.4142265E-2,2.7802987E-2,-1.1315375E-1,-7.089228E-2,1.7866394E-1,9.6937194E-2,-9.863205E-2,-1.7236185E-1,1.08879514E-1,-3.8148113E-2,1.7369042E-1,-3.6340803E-2,2.9521728E-1],"split_indices":[0,5,3,6,3,5,3,1,0,5,0,2,2,2,4,6,0,1,0,4,1,0,0,4,0,2,4,0,0,0,0,0,0,0,0,0,0,6,6,5,5,3,2,0,0,0,0,0,0,0,0,0,0,0,0,0,0,0,0],"split_type":[0,0,0,0,0,0,0,0,0,0,0,0,0,0,0,0,0,0,0,0,0,0,0,0,0,0,0,0,0,0,0,0,0,0,0,0,0,0,0,0,0,0,0,0,0,0,0,0,0,0,0,0,0,0,0,0,0,0,0],"sum_hessian":[4.6272897E2,2.704667E1,4.356823E2,8.997906E0,1.8048767E1,1.260041E1,4.230819E2,7.109821E0,1.8880847E0,6.8838353E0,1.116493E1,1.040923E1,2.1911802E0,2.4208327E2,1.8099863E2,6.094822E0,1.0149986E0,3.667411E0,3.2164242E0,3.1685376E0,7.2406926E0,1.0231813E0,1.167999E0,3.1889376E1,2.101939E2,1.16496925E2,6.45017E1,1.0550947E0,5.039727E0,1.7705754E0,1.8968358E0,1.514168E0,1.6543696E0,1.0036176E0,6.237075E0,1.965529E1,1.2234084E1,1.6799965E2,4.2194252E1,7.041174E1,4.6085186E1,4.1882114E1,2.261959E1,2.8461926E0,1.6809097E1,1.001463E1,2.2194543E0,9.454931E1,7.345034E1,9.258381E0,3.293587E1,3.7347214E1,3.306453E1,3.8047516E1,8.037668E0,6.4347734E0,3.5447342E1,3.0395756E0,1.9580015E1],"tree_param":{"num_deleted":"0","num_feature":"7","num_nodes":"59","size_leaf_vector":"0"}},{"base_weights":[6.9814273E-3,-4.3844404E-3,7.688748E-1,3.4420735E-1,-2.469559E-2,8.7093097E-1,2.8614563E-1,-7.8499985E-1,8.6585146E-1,-1.2968406E-1,6.442132E-2,-9.754293E-1,1.8035063E-1,1.0823915E0,2.5676304E-1,1.8026732E-2,-4.0663016E-1,-8.557405E-2,4.0957958E-1,-2.1888451E-1,-1.088278E0,3.0246666E-1,1.144631E0,7.803922E-1,-3.584987E-1,6.273579E-1,-5.9661333E-2,-6.1331385E-1,3.2827094E-1,-2.3447053E-1,2.8276488E-1,-1.9335498E-1,9.085618E-1,-5.498905E-1,-4.125832E-2,-2.5950035E-1,9.212402E-1,2.9861832E-1,-1.8631914E-1,-8.8589585E-1,-6.246091E-2,-7.331302E-1,4.7496068E-1,2.945246E-1,-4.2908025E-1,-1.3834442E-1,6.06518E-1,3.7619168E-1,-4.693837E-1,2.8263953E-1,1.0918211E0],"categories":[],"categories_nodes":[],"categories_segments":[],"categories_sizes":[],"default_left":[1,1,1,1,1,0,0,1,1,1,1,1,0,1,1,1,1,1,1,0,0,0,0,0,1,1,1,1,1,1,1,1,1,0,0,0,0,0,0,0,0,0,0,0,0,0,0,0,0,0,0],"id":14,"left_children":[1,3,5,7,9,-1,-1,11,13,15,17,19,-1,21,23,25,27,29,31,-1,-1,-1,-1,-1,33,35,37,39,41,43,45,47,49,-1,-1,-1,-1,-1,-1,-1,-1,-1,-1,-1,-1,-1,-1,-1,-1,-1,-1],"loss_changes":[3.861955E0,3.124048E0,7.3731184E-2,1.499008E1,3.9074414E0,0E0,0E0,1.6835375E0,1.976532E0,7.847833E0,1.1739384E1,3.5992336E-1,0E0,2.5081158E-1,2.146437E0,5.9997525E0,1.03339615E1,8.754596E0,2.0831305E1,0E0,0E0,0E0,0E0,0E0,1.806643E-1,3.9738064E0,5.1663585E0,7.8149014E0,2.7295089E0,1.1796555E1,6.363092E0,5.193886E0,4.0206776E0,0E0,0E0,0E0,0E0,0E0,0E0,0E0,0E0,0E0,0E0,0E0,0E0,0E0,0E0,0E0,0E0,0E0,0E0],"parents":[2147483647,0,0,1,1,2,2,3,3,4,4,7,7,8,8,9,9,10,10,11,11,13,13,14,14,15,15,16,16,17,17,18,18,24,24,25,25,26,26,27,27,28,28,29,29,30,30,31,31,32,32],"right_children":[2,4,6,8,10,-1,-1,12,14,16,18,20,-1,22,24,26,28,30,32,-1,-1,-1,-1,-1,34,36,38,40,42,44,46,48,50,-1,-1,-1,-1,-1,-1,-1,-1,-1,-1,-1,-1,-1,-1,-1,-1,-1,-1],"split_conditions":[2.3690748E0,-3.098153E0,2.211526E0,-1.353587E0,-7.7359575E-1,2.612793E-1,8.584369E-2,6.7001426E-1,1.613364E0,1.0579927E0,9.4277465E-1,-1.5493201E0,5.4105192E-2,-1.1490169E0,5.660289E-1,-1.8745093E0,1.482974E0,1.6745024E0,-1.2850385E0,-6.566536E-2,-3.2648343E-1,9.074E-2,3.4338933E-1,2.3411767E-1,2.439663E0,-1.03469E0,-1.0980877E0,-1.16490304E-1,-2.835536E0,5.780656E-1,5.254707E-1,1.3211634E0,-1.9462452E0,-1.6496716E-1,-1.2377497E-2,-7.785011E-2,2.7637208E-1,8.95855E-2,-5.5895746E-2,-2.6576877E-1,-1.8738274E-2,-2.1993907E-1,1.4248821E-1,8.835739E-2,-1.2872408E-1,-4.150333E-2,1.819554E-1,1.12857506E-1,-1.4081511E-1,8.479186E-2,3.2754633E-1],"split_indices":[1,1,6,6,2,0,0,4,6,5,5,2,0,6,5,1,0,4,0,0,0,0,0,0,6,4,4,1,6,3,3,5,1,0,0,0,0,0,0,0,0,0,0,0,0,0,0,0,0,0,0],"split_type":[0,0,0,0,0,0,0,0,0,0,0,0,0,0,0,0,0,0,0,0,0,0,0,0,0,0,0,0,0,0,0,0,0,0,0,0,0,0,0,0,0,0,0,0,0,0,0,0,0,0,0],"sum_hessian":[4.4458563E2,4.3903046E2,5.5551777E0,2.3294249E1,4.157362E2,3.9218569E0,1.6333207E0,7.2011037E0,1.6093145E1,1.9066219E2,2.25074E2,6.00591E0,1.1951938E0,1.1299083E1,4.794062E0,1.24952805E2,6.570939E1,1.5741727E2,6.765673E1,1.1611463E0,4.8447638E0,1.2681086E0,1.0030974E1,2.4448981E0,2.3491638E0,1.3329571E1,1.1162323E2,5.14149E1,1.4294489E1,1.123604E2,4.5056873E1,3.0914434E1,3.6742294E1,1.0077999E0,1.3413639E0,3.3468034E0,9.982767E0,2.8799578E1,8.2823654E1,3.398812E1,1.742678E1,1.2502489E0,1.304424E1,3.0080658E1,8.227974E1,1.9832806E1,2.5224068E1,9.973219E0,2.0941216E1,8.896971E0,2.7845324E1],"tree_param":{"num_deleted":"0","num_feature":"7","num_nodes":"51","size_leaf_vector":"0"}},{"base_weights":[7.948065E-3,-1.3014956E-2,3.3087382E-1,-4.264282E-2,2.4464619E-1,6.2456608E-2,7.231733E-1,-5.076269E-1,-2.634182E-2,5.5799836E-1,1.214406E-1,5.0325125E-1,-1.1634301E-1,8.293313E-1,-6.7963805E-3,-9.0304923E-1,-2.1637689E-1,-5.385883E-1,-7.2236997E-3,1.15959994E-1,9.347E-1,2.2354624E-1,-3.0778542E-1,8.794384E-1,-1.401327E-1,-3.8546416E-1,3.4385425E-1,2.2149232E-1,9.333093E-1,5.69153E-1,-6.2902796E-1,1.6893204E-1,-6.865165E-1,-1.9396361E-2,8.104021E-1,-5.2517104E-1,5.9624153E-1,-6.014223E-1,2.816081E-1,4.6639577E-1,-5.5740446E-1,-5.915009E-1,5.6445086E-1,6.151335E-1,-3.1198877E-1,1.0281106E0,2.994766E-1,9.880368E-1,-4.917996E-2,-7.92829E-1,-8.74702E-3,-2.6308364E-1,-8.4087205E-1,3.4599312E-4,-4.456995E-1,-6.98197E-1,-6.9369525E-2,7.7495337E-1,3.2739982E-2,-7.120954E-2,4.2399082E-1,-7.5571275E-1,5.8758568E-2,-7.892233E-2,-7.3672104E-1,-2.0490259E-2,8.6202794E-1],"categories":[],"categories_nodes":[],"categories_segments":[],"categories_sizes":[],"default_left":[1,1,1,1,1,1,1,1,1,1,1,1,1,1,0,0,1,1,1,1,0,1,1,0,0,1,1,0,1,1,1,0,1,1,0,1,1,0,1,0,1,1,0,1,0,0,0,0,0,0,0,0,0,0,0,0,0,0,0,0,0,0,0,0,0,0,0],"id":15,"left_children":[1,3,5,7,9,11,13,15,17,19,21,23,25,27,-1,-1,29,31,33,35,-1,37,39,-1,-1,41,43,-1,45,47,49,-1,51,53,-1,55,57,-1,59,-1,61,63,-1,65,-1,-1,-1,-1,-1,-1,-1,-1,-1,-1,-1,-1,-1,-1,-1,-1,-1,-1,-1,-1,-1,-1,-1],"loss_changes":[2.893344E0,3.0771375E0,2.6982505E0,2.723978E0,1.5374045E0,1.3639977E0,8.185053E-1,1.2069926E0,3.4233816E0,1.799196E0,1.4327509E0,1.3255699E0,1.6925472E0,3.7258816E-1,0E0,0E0,3.0573056E0,1.432405E0,3.383577E0,2.2876706E0,0E0,1.4013447E0,1.4970326E0,0E0,0E0,1.9817203E0,1.1129019E0,0E0,1.4372349E-1,9.273833E-1,5.960169E-1,0E0,4.7161055E-1,2.814538E0,0E0,2.1008962E-1,3.9098227E-1,0E0,1.2715095E0,0E0,6.915418E-1,4.932189E-1,0E0,6.4513326E-1,0E0,0E0,0E0,0E0,0E0,0E0,0E0,0E0,0E0,0E0,0E0,0E0,0E0,0E0,0E0,0E0,0E0,0E0,0E0,0E0,0E0,0E0,0E0],"parents":[2147483647,0,0,1,1,2,2,3,3,4,4,5,5,6,6,7,7,8,8,9,9,10,10,11,11,12,12,13,13,16,16,17,17,18,18,19,19,21,21,22,22,25,25,26,26,28,28,29,29,30,30,32,32,33,33,35,35,36,36,38,38,40,40,41,41,43,43],"right_children":[2,4,6,8,10,12,14,16,18,20,22,24,26,28,-1,-1,30,32,34,36,-1,38,40,-1,-1,42,44,-1,46,48,50,-1,52,54,-1,56,58,-1,60,-1,62,64,-1,66,-1,-1,-1,-1,-1,-1,-1,-1,-1,-1,-1,-1,-1,-1,-1,-1,-1,-1,-1,-1,-1,-1,-1],"split_conditions":[3.0183516E0,9.712601E-1,-6.4420724E-1,-3.9965966E0,-7.937101E-3,3.199391E0,1.0295476E0,1.4326785E0,-2.5860415E0,-1.2805245E0,2.650289E-1,-1.3552427E0,3.8417194E0,-1.066841E0,-2.0389142E-3,-2.709148E-1,4.5532882E-1,-1.0837339E0,3.0144773E0,-9.4024515E-1,2.8041002E-1,1.386425E-1,-3.2848854E0,2.6383153E-1,-4.203981E-2,2.1430593E0,-5.0128585E-1,6.64477E-2,2.233905E0,2.0188522E0,3.3462043E0,5.0679613E-2,-3.6792688E0,3.4253192E0,2.4312064E-1,1.775445E0,1.6861728E0,-1.804267E-1,-2.113256E0,1.3991873E-1,1.8673397E0,-1.1655263E0,1.6933526E-1,-2.7945886E0,-9.359664E-2,3.084332E-1,8.984298E-2,2.9641107E-1,-1.4753989E-2,-2.378487E-1,-2.6241061E-3,-7.8925095E-2,-2.5226164E-1,1.0379794E-4,-1.3370986E-1,-2.0945911E-1,-2.0810857E-2,2.3248602E-1,9.821995E-3,-2.1362863E-2,1.2719725E-1,-2.2671384E-1,1.762757E-2,-2.36767E-2,-2.2101632E-1,-6.147078E-3,2.586084E-1],"split_indices":[3,1,4,2,3,3,1,0,4,0,2,2,3,0,0,0,4,5,0,2,0,3,5,0,0,6,2,0,6,5,0,0,4,6,0,1,1,0,2,0,1,1,0,4,0,0,0,0,0,0,0,0,0,0,0,0,0,0,0,0,0,0,0,0,0,0,0],"split_type":[0,0,0,0,0,0,0,0,0,0,0,0,0,0,0,0,0,0,0,0,0,0,0,0,0,0,0,0,0,0,0,0,0,0,0,0,0,0,0,0,0,0,0,0,0,0,0,0,0,0,0,0,0,0,0,0,0,0,0,0,0,0,0,0,0,0,0],"sum_hessian":[4.257727E2,4.0071933E2,2.5053368E1,3.6014194E2,4.0577396E1,1.5563674E1,9.489694E0,1.1177052E1,3.4896487E2,1.0455819E1,3.0121576E1,3.9676404E0,1.1596033E1,8.16601E0,1.3236835E0,3.8497508E0,7.327301E0,1.1577893E1,3.37387E2,5.4124455E0,5.043374E0,2.4720236E1,5.401341E0,2.2721925E0,1.6954479E0,7.4195247E0,4.176509E0,1.650081E0,6.5159287E0,2.3928912E0,4.93441E0,1.9775518E0,9.600342E0,3.333997E2,3.9873154E0,2.2780268E0,3.1344185E0,1.010093E0,2.3710144E1,1.105197E0,4.296144E0,6.407129E0,1.0123956E0,2.998357E0,1.178152E0,5.127033E0,1.3888955E0,1.0700749E0,1.3228163E0,3.6835082E0,1.2509017E0,3.2871978E0,6.3131437E0,3.1959808E2,1.380159E1,1.265741E0,1.012286E0,2.0948124E0,1.0396062E0,6.9609957E0,1.6749147E1,3.0787766E0,1.2173672E0,1.7552278E0,4.6519012E0,1.0953674E0,1.9029895E0],"tree_param":{"num_deleted":"0","num_feature":"7","num_nodes":"67","size_leaf_vector":"0"}},{"base_weights":[7.1624597E-3,7.530648E-1,-7.818629E-4,-3.181283E-1,1.7531004E-2,4.2394185E-1,-6.783012E-1,-8.175812E-1,2.4505414E-2,7.0431864E-1,-4.710646E-1,-8.7686294E-1,2.9551227E-2,1.6315611E-2,6.8880755E-1,8.0315876E-1,8.414389E-2,-1.5320122E-1,-9.981679E-1,5.8296335E-1,-6.154784E-1,-6.2569726E-1,2.4514921E-2,8.358222E-1,1.9127503E-1,6.3526645E-2,9.538075E-1,-3.5725418E-1,-1.095274E0,-8.674594E-1,9.002588E-2,1.049187E0,1.893729E-2],"categories":[],"categories_nodes":[],"categories_segments":[],"categories_sizes":[],"default_left":[1,0,1,1,1,1,1,0,1,1,0,1,1,1,1,1,0,0,1,0,0,1,1,0,0,0,0,0,0,0,0,0,0],"id":16,"left_children":[1,-1,3,5,7,9,11,-1,13,15,-1,17,19,21,23,25,-1,-1,27,-1,-1,29,31,-1,-1,-1,-1,-1,-1,-1,-1,-1,-1],"loss_changes":[2.4866126E0,0E0,2.4238162E0,6.3692036E0,2.3169324E0,2.3520107E0,2.2331042E0,0E0,2.1217737E0,3.327601E-1,0E0,9.26486E-1,1.9321322E0,2.0594325E0,1.875925E-1,5.540502E-1,0E0,0E0,2.5283432E-1,0E0,0E0,9.319142E-1,2.1769369E0,0E0,0E0,0E0,0E0,0E0,0E0,0E0,0E0,0E0,0E0],"parents":[2147483647,0,0,2,2,3,3,4,4,5,5,6,6,8,8,9,9,11,11,12,12,13,13,14,14,15,15,18,18,21,21,22,22],"right_children":[2,-1,4,6,8,10,12,-1,14,16,-1,18,20,22,24,26,-1,-1,28,-1,-1,30,32,-1,-1,-1,-1,-1,-1,-1,-1,-1,-1],"split_conditions":[-1.8911586E0,2.2591946E-1,-3.1181936E0,1.3418332E-2,-5.131564E0,1.0192282E0,2.243897E0,-2.4527436E-1,2.3690748E0,1.7577238E0,-1.4131938E-1,-1.0654604E0,2.65565E-1,-4.0517025E0,2.211526E0,-2.6904664E0,2.5243169E-2,-4.5960367E-2,6.0306007E-1,1.7488901E-1,-1.8464352E-1,5.046593E-2,-3.8750944E0,2.5074667E-1,5.7382513E-2,1.9057995E-2,2.8614226E-1,-1.0717626E-1,-3.285822E-1,-2.6023784E-1,2.7007764E-2,3.147561E-1,5.681187E-3],"split_indices":[3,0,0,5,2,6,2,0,1,1,0,3,3,4,6,6,0,0,5,0,0,1,4,0,0,0,0,0,0,0,0,0,0],"split_type":[0,0,0,0,0,0,0,0,0,0,0,0,0,0,0,0,0,0,0,0,0,0,0,0,0,0,0,0,0,0,0,0,0],"sum_hessian":[4.1853333E2,3.4222388E0,4.1511108E2,2.1754377E1,3.9335672E2,7.0506854E0,1.4703692E1,2.29528E0,3.9106143E2,5.531044E0,1.519641E0,1.1296198E1,3.4074943E0,3.8731107E2,3.750378E0,4.5162206E0,1.0148237E0,1.9465748E0,9.349623E0,1.885783E0,1.5217115E0,3.9343855E0,3.8337668E2,2.370106E0,1.3802718E0,1.0047817E0,3.5114388E0,1.8458388E0,7.503784E0,2.7824912E0,1.1518945E0,1.0625814E0,3.823141E2],"tree_param":{"num_deleted":"0","num_feature":"7","num_nodes":"33","size_leaf_vector":"0"}},{"base_weights":[4.9479622E-3,-1.2498815E-2,2.8923735E-1,1.2976077E-1,-5.5621624E-2,1.1073882E-1,8.3377624E-1,3.8619792E-1,-2.3803572E-1,-1.0366413E-1,1.9187073E-1,-2.3472354E-1,3.4295565E-1,9.2665714E-1,2.877471E-1,4.7383968E-2,7.501089E-1,-7.1888894E-1,-5.398859E-2,-1.5181763E-1,1.2782235E-1,-4.9906248E-1,4.0894815E-1,4.6795478E-1,-6.282129E-1,-3.426211E-2,7.124702E-1,-4.5746028E-1,4.173762E-1,-1.855844E-2,8.069745E-1,-8.634676E-1,-1.9608164E-2,-3.1759998E-1,5.669355E-1,5.5601305E-1,-2.0601064E-1,-3.4702522E-1,4.932029E-1,3.2554305E-1,-7.835606E-1,9.0014845E-1,1.6957255E-4,6.845069E-1,2.0107634E-2,-9.0126574E-2,-8.050641E-1,-3.3947745E-1,4.3666115E-1,8.789904E-1,-3.0864626E-2,7.160054E-1,-6.281718E-1,-2.853649E-1,7.25786E-1,-1.0689379E-1,8.513568E-1,-2.8777483E-1,-1.0305724E0,5.451286E-1,-4.6371573E-1,-2.4158859E-1,7.46393E-1,9.0772593E-1,-2.2108996E-1,4.0046868E-1,-2.3349142E-1,-5.676526E-1,1.12286314E-1,-8.109581E-1,7.648598E-1,7.290231E-1,-3.8663533E-1,3.9519165E-2,-1.0033302E0,-2.6097092E-1,1.0623791E0,7.575748E-1,-3.9403954E-1,-5.708226E-1,2.0605813E-1,6.9901955E-1,-5.3555675E-2,9.8241156E-1,2.3925434E-1],"categories":[],"categories_nodes":[],"categories_segments":[],"categories_sizes":[],"default_left":[1,1,1,1,1,1,1,1,1,1,1,1,1,0,0,1,1,1,1,1,1,1,1,1,1,1,1,1,1,0,1,1,0,1,1,1,1,1,1,1,1,1,1,0,0,0,0,1,1,1,0,0,0,0,0,0,0,0,0,0,0,0,0,0,0,0,0,0,0,0,0,0,0,0,0,0,0,0,0,0,0,0,0,0,0],"id":17,"left_children":[1,3,5,7,9,11,13,15,17,19,21,23,25,-1,-1,27,29,31,33,35,37,39,41,43,45,47,49,51,53,-1,55,57,-1,59,61,63,65,67,69,71,73,75,77,-1,-1,-1,-1,79,81,83,-1,-1,-1,-1,-1,-1,-1,-1,-1,-1,-1,-1,-1,-1,-1,-1,-1,-1,-1,-1,-1,-1,-1,-1,-1,-1,-1,-1,-1,-1,-1,-1,-1,-1,-1],"loss_changes":[2.0644877E0,2.4146788E0,2.2469094E0,8.730123E0,3.6089394E0,1.6270403E0,2.6908875E-2,6.6649895E0,3.3456762E0,2.8443685E0,7.6163936E0,2.6008353E0,1.6880049E0,0E0,0E0,5.6470103E0,1.1573219E0,1.0450954E0,4.8840275E0,8.179523E0,7.836942E0,3.1324759E0,7.6610303E0,3.3227235E-1,4.7701216E-1,1.1342558E0,7.7909017E-1,3.0200863E0,3.9737382E0,0E0,1.0788927E0,5.386076E-1,0E0,2.876639E0,1.4751153E0,4.3612747E0,3.3605595E0,2.070251E0,9.612984E0,1.3889217E0,1.7422638E0,3.5417004E0,6.814855E0,0E0,0E0,0E0,0E0,7.1394676E-1,4.4065046E-1,9.556985E-2,0E0,0E0,0E0,0E0,0E0,0E0,0E0,0E0,0E0,0E0,0E0,0E0,0E0,0E0,0E0,0E0,0E0,0E0,0E0,0E0,0E0,0E0,0E0,0E0,0E0,0E0,0E0,0E0,0E0,0E0,0E0,0E0,0E0,0E0,0E0],"parents":[2147483647,0,0,1,1,2,2,3,3,4,4,5,5,6,6,7,7,8,8,9,9,10,10,11,11,12,12,15,15,16,16,17,17,18,18,19,19,20,20,21,21,22,22,23,23,24,24,25,25,26,26,27,27,28,28,30,30,31,31,33,33,34,34,35,35,36,36,37,37,38,38,39,39,40,40,41,41,42,42,47,47,48,48,49,49],"right_children":[2,4,6,8,10,12,14,16,18,20,22,24,26,-1,-1,28,30,32,34,36,38,40,42,44,46,48,50,52,54,-1,56,58,-1,60,62,64,66,68,70,72,74,76,78,-1,-1,-1,-1,80,82,84,-1,-1,-1,-1,-1,-1,-1,-1,-1,-1,-1,-1,-1,-1,-1,-1,-1,-1,-1,-1,-1,-1,-1,-1,-1,-1,-1,-1,-1,-1,-1,-1,-1,-1,-1],"split_conditions":[3.0183516E0,4.9238164E-2,1.2663817E-1,1.4019287E0,1.8635726E0,1.5306771E-1,2.2423217E0,-9.957323E-1,-2.1824799E0,1.620919E0,4.8783076E-1,-2.1498084E0,-1.047818E0,2.7799717E-1,8.632414E-2,3.4125733E-1,-2.0302467E0,2.9053926E0,5.7817703E-1,-2.8749151E0,-1.4217108E0,-1.628581E0,3.0168697E-1,3.5474033E0,3.1367588E0,-1.0554178E0,1.7866728E0,-6.619099E-1,-1.3820393E0,-5.5675325E-3,-2.0173688E0,2.1209345E0,-5.8824494E-3,-2.4157925E0,-1.962559E0,-6.5159574E-2,-2.9862232E0,-7.406811E-2,-1.8248339E0,7.87414E-1,2.2499506E0,-1.9462502E0,-1.0708804E0,2.0535208E-1,6.0322904E-3,-2.7037973E-2,-2.4151923E-1,6.2352544E-1,-1.7075784E0,2.1963344E0,-9.259388E-3,2.1480162E-1,-1.8845154E-1,-8.560947E-2,2.177358E-1,-3.206814E-2,2.5540707E-1,-8.6332455E-2,-3.0917174E-1,1.6353858E-1,-1.3911472E-1,-7.247658E-2,2.2391792E-1,2.723178E-1,-6.632699E-2,1.20140605E-1,-7.004743E-2,-1.7029577E-1,3.3685897E-2,-2.4328743E-1,2.2945794E-1,2.1870694E-1,-1.159906E-1,1.185575E-2,-3.0099908E-1,-7.829128E-2,3.1871375E-1,2.2727245E-1,-1.18211865E-1,-1.7124678E-1,6.181744E-2,2.0970587E-1,-1.6066704E-2,2.9472348E-1,7.177631E-2],"split_indices":[3,3,4,4,4,0,6,0,2,5,3,5,5,0,0,2,1,0,0,2,2,1,6,3,3,4,5,5,1,0,5,4,0,6,5,6,1,1,0,5,4,2,5,0,0,0,0,1,5,0,0,0,0,0,0,0,0,0,0,0,0,0,0,0,0,0,0,0,0,0,0,0,0,0,0,0,0,0,0,0,0,0,0,0,0],"split_type":[0,0,0,0,0,0,0,0,0,0,0,0,0,0,0,0,0,0,0,0,0,0,0,0,0,0,0,0,0,0,0,0,0,0,0,0,0,0,0,0,0,0,0,0,0,0,0,0,0,0,0,0,0,0,0,0,0,0,0,0,0,0,0,0,0,0,0,0,0,0,0,0,0,0,0,0,0,0,0,0,0,0,0,0,0],"sum_hessian":[4.1450412E2,3.914377E2,2.306641E1,9.058711E1,3.008506E2,1.8278217E1,4.7881927E0,5.3344162E1,3.7242954E1,2.5243063E2,4.8419964E1,7.343181E0,1.0935037E1,3.4963682E0,1.2918247E0,2.8209929E1,2.5134233E1,9.504607E0,2.7738346E1,2.0924742E2,4.3183205E1,1.1265171E1,3.7154793E1,2.5680363E0,4.775145E0,5.860075E0,5.0749617E0,1.1830767E1,1.6379162E1,1.7777363E0,2.3356497E1,7.6816144E0,1.8229927E0,1.9814617E1,7.923729E0,1.4222556E1,1.9502487E2,1.880044E1,2.4382765E1,2.8526416E0,8.41253E0,1.6330065E1,2.0824728E1,1.374818E0,1.1932182E0,1.5546364E0,3.2205086E0,3.724968E0,2.135107E0,3.997054E0,1.0779074E0,1.0968453E0,1.0733921E1,5.0185776E0,1.1360585E1,1.0165439E0,2.2339952E1,2.3404956E0,5.341119E0,2.474331E0,1.7340286E1,1.3763838E0,6.547345E0,9.675421E0,4.5471354E0,7.8655534E0,1.8715932E2,1.2540711E1,6.259729E0,3.8611348E0,2.0521631E1,1.8058796E0,1.0467619E0,1.9456971E0,6.466833E0,1.9273034E0,1.44027605E1,6.8129854E0,1.4011743E1,2.5831707E0,1.1417973E0,1.1133275E0,1.0217795E0,2.9796982E0,1.0173558E0],"tree_param":{"num_deleted":"0","num_feature":"7","num_nodes":"85","size_leaf_vector":"0"}},{"base_weights":[8.444392E-3,1.7616819E-1,-2.6029224E-2,2.8100508E-1,-5.111095E-1,-1.3107314E-2,-6.9375265E-1,8.934847E-1,1.6700937E-1,-9.5076025E-1,2.3066871E-1,-3.7367016E-2,3.0012184E-1,6.1691508E-2,-9.320152E-1,-1.7827295E-1,1.0608447E0,2.681074E-1,-3.034061E-1,-1.0780579E0,-3.9030403E-1,-5.169056E-1,6.148906E-1,-6.392975E-2,3.0669212E-1,-3.6095572E-1,4.2463884E-1,3.6372963E-1,-3.3819616E-1,-8.823475E-1,4.325451E-2,1.8473543E-1,7.2909987E-1,1.6070749E-1,-1.1846141E-1,-3.603847E-1,4.8073995E-1,-7.6685345E-1,2.0343472E-1,-1.6491878E-1,5.530204E-1,8.251292E-1,2.4297698E-1,5.609778E-1,-7.645954E-1,-6.4103025E-1,7.305562E-1,-4.25837E-1,2.5839946E-1,-2.3123845E-1,1.2495741E-3,8.7468885E-2,-8.342591E-1,-3.4662008E-1,6.001623E-1,-6.2677413E-1,3.5338157E-1,2.001165E-1,8.980496E-1],"categories":[],"categories_nodes":[],"categories_segments":[],"categories_sizes":[],"default_left":[1,1,1,1,1,1,1,1,1,1,1,1,1,0,0,0,0,1,1,0,0,0,1,1,1,1,1,1,1,0,1,0,0,1,1,1,1,0,0,1,1,0,0,0,0,0,0,0,0,0,0,0,0,0,0,0,0,0,0],"id":18,"left_children":[1,3,5,7,9,11,13,15,17,19,21,23,25,-1,-1,-1,-1,27,29,-1,-1,-1,31,33,35,37,39,41,43,-1,45,-1,-1,47,49,51,53,-1,-1,55,57,-1,-1,-1,-1,-1,-1,-1,-1,-1,-1,-1,-1,-1,-1,-1,-1,-1,-1],"loss_changes":[2.321211E0,5.074791E0,2.8660123E0,4.0418153E0,3.2890096E0,2.502973E0,1.1926923E0,1.8373795E0,2.5466163E0,1.4800072E-2,1.5551153E0,2.8091564E0,2.102674E0,0E0,0E0,0E0,0E0,2.6274748E0,1.9726455E0,0E0,0E0,0E0,2.7525783E-2,3.5002222E0,2.733165E0,1.1397283E0,1.6343307E0,1.9052806E0,2.8838806E0,0E0,3.7520754E0,0E0,0E0,3.3151636E0,3.0952697E0,1.1625204E0,1.9780955E0,0E0,0E0,1.2786028E0,1.8868165E0,0E0,0E0,0E0,0E0,0E0,0E0,0E0,0E0,0E0,0E0,0E0,0E0,0E0,0E0,0E0,0E0,0E0,0E0],"parents":[2147483647,0,0,1,1,2,2,3,3,4,4,5,5,6,6,7,7,8,8,9,9,10,10,11,11,12,12,17,17,18,18,22,22,23,23,24,24,25,25,26,26,27,27,28,28,30,30,33,33,34,34,35,35,36,36,39,39,40,40],"right_children":[2,4,6,8,10,12,14,16,18,20,22,24,26,-1,-1,-1,-1,28,30,-1,-1,-1,32,34,36,38,40,42,44,-1,46,-1,-1,48,50,52,54,-1,-1,56,58,-1,-1,-1,-1,-1,-1,-1,-1,-1,-1,-1,-1,-1,-1,-1,-1,-1,-1],"split_conditions":[-1.3759077E0,1.4142067E0,3.8066015E0,-1.7621984E0,1.9593558E0,2.1241798E0,-2.102177E0,-1.3305072E0,2.9380376E0,2.2448092E0,-7.340916E-1,1.9710178E0,-1.5160356E0,1.8507453E-2,-2.7960455E-1,-5.3481888E-2,3.182534E-1,1.5148358E0,4.9648246E-1,-3.2341737E-1,-1.17091216E-1,-1.5507169E-1,-2.1275997E0,2.5525192E-2,-1.0234607E-1,1.4268728E0,-3.7602742E0,-9.245831E-1,5.639725E-1,-2.6470426E-1,-5.872456E-1,5.5420633E-2,2.1872997E-1,-2.0352592E0,1.305512E0,-4.097705E-1,-1.063292E0,-2.3005605E-1,6.1030418E-2,-1.4171689E0,5.6061023E-1,2.4753878E-1,7.28931E-2,1.6829336E-1,-2.2937863E-1,-1.9230908E-1,2.1916686E-1,-1.2775111E-1,7.751984E-2,-6.937154E-2,3.7487227E-4,2.6240667E-2,-2.5027773E-1,-1.0398603E-1,1.800487E-1,-1.8803225E-1,1.06014475E-1,6.0034953E-2,2.694149E-1],"split_indices":[5,0,4,1,6,0,1,6,6,3,2,2,6,0,0,0,0,2,2,0,0,0,5,3,5,5,2,1,3,0,0,0,0,1,3,5,4,0,0,1,5,0,0,0,0,0,0,0,0,0,0,0,0,0,0,0,0,0,0],"split_type":[0,0,0,0,0,0,0,0,0,0,0,0,0,0,0,0,0,0,0,0,0,0,0,0,0,0,0,0,0,0,0,0,0,0,0,0,0,0,0,0,0,0,0,0,0,0,0,0,0,0,0,0,0,0,0,0,0,0,0],"sum_hessian":[3.996585E2,6.743894E1,3.3221957E2,5.902625E1,8.412693E0,3.2691272E2,5.3068466E0,8.189198E0,5.083705E1,5.1051483E0,3.3075447E0,3.0423065E2,2.2682062E1,1.4501201E0,3.8567266E0,1.0972571E0,7.0919404E0,4.2198204E1,8.638847E0,3.40763E0,1.6975185E0,1.0056115E0,2.301933E0,2.8318207E2,2.1048595E1,3.2941465E0,1.9387917E1,3.6795193E1,5.40301E0,2.6567154E0,5.982132E0,1.0321152E0,1.2698178E0,5.493524E1,2.2824683E2,4.1339E0,1.6914696E1,1.7074534E0,1.5866933E0,3.4160466E0,1.5971869E1,6.422273E0,3.037292E1,1.63647E0,3.7665398E0,3.031381E0,2.9507513E0,7.363809E0,4.757143E1,1.17047424E2,1.111994E2,2.5445194E0,1.5893806E0,1.8935665E0,1.502113E1,1.6957147E0,1.720332E0,8.676916E0,7.294953E0],"tree_param":{"num_deleted":"0","num_feature":"7","num_nodes":"59","size_leaf_vector":"0"}},{"base_weights":[5.7747522E-3,1.50401825E-2,-5.548278E-1,3.6181384E-1,-7.5339334E-4,1.0566157E-1,-7.3736554E-1,-8.4432185E-1,7.698405E-1,3.7835896E-1,-1.42187495E-2,-9.0597856E-1,-2.0128202E-2,9.8243695E-1,2.4458523E-1,-5.4704493E-1,8.177185E-1,-2.1659765E-2,5.6353647E-1,1.16851E0,2.3729113E-1,-5.6801486E-1,6.278764E-1,-7.640484E-1,8.536985E-2,1.1351701E0,-2.8653717E-1,-7.8124E-2,5.9264153E-2,6.876526E-1,1.6016166E-1,2.3587272E-2,-2.5177288E-1,-1.3312602E-1,4.1945112E-1],"categories":[],"categories_nodes":[],"categories_segments":[],"categories_sizes":[],"default_left":[1,1,1,1,1,0,1,0,1,1,1,0,0,1,1,1,1,1,1,0,0,0,0,0,0,0,0,1,1,0,0,0,0,0,0],"id":19,"left_children":[1,3,5,7,9,-1,11,-1,13,15,17,-1,-1,19,21,23,25,27,29,-1,-1,-1,-1,-1,-1,-1,-1,31,33,-1,-1,-1,-1,-1,-1],"loss_changes":[2.0432327E0,2.1163082E0,8.490375E-1,8.933738E0,1.8969E0,0E0,6.0293937E-1,0E0,1.2226067E0,5.629416E0,1.5546588E0,0E0,0E0,9.6980476E-1,1.9470046E0,7.105528E-1,3.495304E0,1.6275886E0,1.2012136E-1,0E0,0E0,0E0,0E0,0E0,0E0,0E0,0E0,3.708654E0,1.02108555E1,0E0,0E0,0E0,0E0,0E0,0E0],"parents":[2147483647,0,0,1,1,2,2,3,3,4,4,6,6,8,8,9,9,10,10,13,13,14,14,15,15,16,16,17,17,18,18,27,27,28,28],"right_children":[2,4,6,8,10,-1,12,-1,14,16,18,-1,-1,20,22,24,26,28,30,-1,-1,-1,-1,-1,-1,-1,-1,32,34,-1,-1,-1,-1,-1,-1],"split_conditions":[3.840726E0,-3.098153E0,-1.2087297E0,-2.026657E0,-3.353393E0,3.1698473E-2,1.4417348E0,-2.5329655E-1,4.4707847E-1,-1.2172095E0,2.3690748E0,-2.7179357E-1,-6.038461E-3,1.613364E0,-1.0000681E0,1.2376637E0,-1.0035341E-1,1.319221E0,2.211526E0,3.50553E-1,7.118734E-2,-1.7040446E-1,1.8836293E-1,-2.2921453E-1,2.5610955E-2,3.4055105E-1,-8.5961156E-2,1.2422756E0,5.6899846E-1,2.0629579E-1,4.80485E-2,7.076182E-3,-7.553187E-2,-3.993781E-2,1.2583534E-1],"split_indices":[5,1,4,6,6,0,4,0,2,1,1,0,0,6,6,4,0,3,6,0,0,0,0,0,0,0,0,4,4,0,0,0,0,0,0],"split_type":[0,0,0,0,0,0,0,0,0,0,0,0,0,0,0,0,0,0,0,0,0,0,0,0,0,0,0,0,0,0,0,0,0,0,0],"sum_hessian":[3.907598E2,3.853638E2,5.3959785E0,1.5832243E1,3.6953156E2,1.2595631E0,4.136415E0,3.7317693E0,1.2100473E1,1.1745396E1,3.5778616E2,3.1360264E0,1.0003887E0,7.9943643E0,4.106109E0,3.702302E0,8.043094E0,3.5418704E2,3.5991304E0,5.9423227E0,2.0520415E0,1.1615702E0,2.944539E0,2.6014943E0,1.1008077E0,6.2254148E0,1.8176788E0,2.0864247E2,1.4554457E2,2.2133474E0,1.385783E0,1.3212004E2,7.652244E1,9.5281395E1,5.026318E1],"tree_param":{"num_deleted":"0","num_feature":"7","num_nodes":"35","size_leaf_vector":"0"}},{"base_weights":[5.9285574E-3,-3.1481066E-1,2.0906297E-2,2.2466105E-1,-8.354108E-1,5.0266254E-1,9.8123485E-3,5.397219E-1,-5.041302E-1,-2.2405185E-1,-1.0168009E0,6.6119885E-1,-1.4409864E-1,-3.6629003E-1,2.2090152E-2,3.8007043E-2,7.7164674E-1,-1.0463691E-1,-6.3342404E-1,3.5732535E-1,-6.6605014E-1,7.0481405E-2,7.6229167E-1,2.751087E-1,-6.749858E-1,1.2738726E0,1.4579896E-2,-2.3175867E-1,2.659996E-1,9.343502E-1,9.7893365E-2,7.3336E-1,-5.17045E-1,-8.8923997E-1,1.00166194E-1,5.241714E-3,6.1553174E-1,9.3946284E-1,1.9231203E-1,2.528754E-1,-1.4513968E-2,3.0300852E-2,7.69637E-1],"categories":[],"categories_nodes":[],"categories_segments":[],"categories_sizes":[],"default_left":[1,1,1,1,1,1,1,1,1,1,0,1,0,1,1,1,1,0,0,0,0,0,0,1,1,0,1,0,0,0,0,1,0,0,0,1,1,0,0,0,0,0,0],"id":20,"left_children":[1,3,5,7,9,11,13,15,17,19,-1,21,-1,23,25,27,29,-1,-1,-1,-1,-1,-1,31,33,-1,35,-1,-1,-1,-1,37,-1,-1,-1,39,41,-1,-1,-1,-1,-1,-1],"loss_changes":[1.8580046E0,5.03413E0,1.967964E0,2.3989255E0,7.6953936E-1,9.4522667E-1,1.6790118E0,7.7936506E-1,1.048311E-1,1.0963963E0,0E0,3.5452294E-1,0E0,2.4618688E0,3.2845821E0,2.6146847E-1,4.238708E-1,0E0,0E0,0E0,0E0,0E0,0E0,1.992962E0,1.4260755E0,0E0,1.9624207E0,0E0,0E0,0E0,0E0,1.7949831E-1,0E0,0E0,0E0,1.695968E0,4.592688E-1,0E0,0E0,0E0,0E0,0E0,0E0],"parents":[2147483647,0,0,1,1,2,2,3,3,4,4,5,5,6,6,7,7,8,8,9,9,11,11,13,13,14,14,15,15,16,16,23,23,24,24,26,26,31,31,35,35,36,36],"right_children":[2,4,6,8,10,12,14,16,18,20,-1,22,-1,24,26,28,30,-1,-1,-1,-1,-1,-1,32,34,-1,36,-1,-1,-1,-1,38,-1,-1,-1,40,42,-1,-1,-1,-1,-1,-1],"split_conditions":[-3.1933165E0,6.267514E-1,-1.3472934E0,7.883764E-1,-1.0654604E0,2.4304595E0,-2.9602323E0,-3.9185423E-1,1.3336079E0,1.5992707E0,-3.0504027E-1,-2.499514E0,-4.3229595E-2,-1.4947467E0,-2.91753E0,-2.0854292E0,1.5266312E0,-3.1391073E-2,-1.9002722E-1,1.07197605E-1,-1.9981505E-1,2.1144422E-2,2.2868751E-1,-1.8025401E0,5.434046E-1,3.821618E-1,3.7654343E0,-6.95276E-2,7.9799876E-2,2.8030506E-1,2.9368011E-2,2.559748E0,-1.5511352E-1,-2.66772E-1,3.0049859E-2,-2.434316E0,2.1954067E-2,2.8183886E-1,5.769361E-2,7.586262E-2,-4.3541905E-3,9.090256E-3,2.3089111E-1],"split_indices":[0,5,3,6,3,5,4,1,3,5,0,2,0,6,4,6,1,0,0,0,0,0,0,2,1,0,3,0,0,0,0,3,0,0,0,0,0,0,0,0,0,0,0],"split_type":[0,0,0,0,0,0,0,0,0,0,0,0,0,0,0,0,0,0,0,0,0,0,0,0,0,0,0,0,0,0,0,0,0,0,0,0,0,0,0,0,0,0,0],"sum_hessian":[3.843961E2,1.6256409E1,3.681397E2,8.262673E0,7.9937353E0,7.289343E0,3.6085034E2,5.949917E0,2.3127563E0,2.3404965E0,5.653239E0,5.8363853E0,1.4529577E0,1.0495997E1,3.5035434E2,2.2488768E0,3.70104E0,1.007884E0,1.3048724E0,1.0936049E0,1.2468916E0,1.1008662E0,4.735519E0,3.4456124E0,7.050385E0,1.0838535E0,3.492705E2,1.0225064E0,1.2263705E0,2.6695833E0,1.0314566E0,2.229876E0,1.2157363E0,5.4083276E0,1.6420574E0,3.4491953E2,4.3509774E0,1.0815154E0,1.1483607E0,2.4612051E1,3.2030746E2,1.1563271E0,3.19465E0],"tree_param":{"num_deleted":"0","num_feature":"7","num_nodes":"43","size_leaf_vector":"0"}},{"base_weights":[5.321081E-3,1.1334164E-1,-3.176407E-2,7.50165E-1,1.8665982E-2,-8.413886E-2,1.3871089E-1,-3.3518374E-1,9.9297523E-1,8.0425754E-2,-3.4010035E-1,5.900972E-3,-3.728929E-1,5.014092E-1,1.5525241E-2,1.0747083E0,1.6626565E-1,1.9019602E-1,-2.4546479E-1,-8.784676E-1,3.1655517E-1,-2.7663356E-1,1.338904E-1,-5.1608884E-1,2.1405448E-1,-3.7296957E-1,8.7611884E-1,1.560478E-1,-3.3156794E-1,1.1340164E0,3.2573587E-1,2.4618655E-1,-8.6983025E-1,4.7810304E-1,-6.7279327E-1,-1.1168258E0,-2.8284823E-3,-1.4787725E-1,8.503475E-1,-5.858804E-1,2.2114213E-1,-4.768235E-2,4.4391105E-1,1.9732279E-1,-6.265857E-1,7.47655E-1,-4.5456335E-1,-7.5505614E-1,2.6281506E-1,1.00480884E-1,1.0553756E0,-5.7259154E-2,7.022793E-1,-5.2795804E-1,5.8337146E-1,6.3934535E-1,1.6281568E-1,8.4799135E-1,-5.4845633E-3,5.2012277E-1,-8.6460686E-1,-7.173057E-1,4.5226067E-1,2.8884605E-1,-6.915655E-1,4.323879E-1,-5.5319387E-1,4.387693E-1,-1.4448267E-1,-2.5930458E-1,6.634164E-1,6.452385E-1,-3.4690312E-1,-8.2842106E-1,-1.2479743E-2,-1.12597734E-1,9.335386E-1,-8.3076864E-1,7.376374E-2,-2.1698844E-1,-8.783536E-1,-6.006707E-1,6.676974E-1,2.4645145E-1,1.1200231E0,-3.686726E-1,1.8495734E-1,-1.7209312E-1,9.4575274E-1,-4.7667198E-2,-9.6498907E-1,1.8136457E-1,6.9691545E-1],"categories":[],"categories_nodes":[],"categories_segments":[],"categories_sizes":[],"default_left":[1,1,1,1,1,1,1,0,1,1,1,1,1,1,1,1,0,1,1,1,1,1,1,1,1,1,1,1,1,0,0,1,0,1,1,0,0,1,0,1,1,1,1,1,1,1,1,1,0,1,1,1,1,1,1,0,0,0,0,0,0,0,0,0,0,0,0,0,0,0,0,0,0,0,0,0,0,0,0,0,0,0,0,0,0,0,0,0,0,0,0,0,0],"id":21,"left_children":[1,3,5,7,9,11,13,-1,15,17,19,21,23,25,27,29,-1,31,33,35,37,39,41,43,45,47,49,51,53,-1,-1,55,-1,57,59,-1,-1,61,-1,63,65,67,69,71,73,75,77,79,-1,81,83,85,87,89,91,-1,-1,-1,-1,-1,-1,-1,-1,-1,-1,-1,-1,-1,-1,-1,-1,-1,-1,-1,-1,-1,-1,-1,-1,-1,-1,-1,-1,-1,-1,-1,-1,-1,-1,-1,-1,-1,-1],"loss_changes":[1.533091E0,5.88239E0,2.556374E0,3.661828E0,1.9365536E0,5.6868467E0,3.0018315E0,